{"layers":[{"out_depth":34,"out_sx":1,"out_sy":1,"layer_type":"input"},{"out_depth":30,"out_sx":1,"out_sy":1,"layer_type":"fc","num_inputs":34,"l1_decay_mul":0,"l2_decay_mul":1,"filters":[{"sx":1,"sy":1,"depth":34,"w":{"0":0.14733798802051862,"1":0.09784445906077711,"2":0.03053950176451211,"3":-0.04014600389392471,"4":0.044592139838025985,"5":-0.03005085395031191,"6":0.07437120420558845,"7":0.142727441407644,"8":-0.04444748438652725,"9":-0.20861408235794537,"10":-0.15766401858472065,"11":0.24947161808198434,"12":0.259202003022563,"13":-0.08593489740224668,"14":-0.17609204725908587,"15":0.13278804905042044,"16":0.21288582718209903,"17":-0.10978590230105989,"18":0.288965573650723,"19":0.04536188833643745,"20":-0.20177900275518657,"21":-0.18245989765666312,"22":0.02778563971318114,"23":-0.003510298536844059,"24":-0.03490455128937507,"25":-0.032749618800279094,"26":0.04749599611423542,"27":0.014856486712263016,"28":0.28154333115645996,"29":-0.17866566535564773,"30":-0.021757830205367132,"31":0.0698576628977903,"32":0.25046252213042447,"33":-0.19245470178410617}},{"sx":1,"sy":1,"depth":34,"w":{"0":-0.31906638915886476,"1":0.017168553384257556,"2":-0.04853060292824999,"3":-0.13618438482581613,"4":0.008300204629127195,"5":-0.09754799091135982,"6":0.1258402147290259,"7":-0.2529657829265263,"8":0.16331716651750114,"9":-0.05560175053014129,"10":0.04625010759928495,"11":0.03727095518135006,"12":-0.26229855598193486,"13":0.28810551165383685,"14":-0.1654791841296713,"15":-0.1481656219032114,"16":0.041620969063587386,"17":-0.06582316058279546,"18":0.28109847027861534,"19":-0.053193839216086086,"20":-0.073085878906371,"21":0.055446980740339886,"22":-0.25544205834443334,"23":0.2165564254574605,"24":0.44763829600407046,"25":0.29584151122044616,"26":-0.16333866420211754,"27":0.20743222888417692,"28":-0.11643592718240361,"29":-0.22899240941599733,"30":0.20770202258264958,"31":0.03568104606997863,"32":-0.001554428123035161,"33":0.10445857718614224}},{"sx":1,"sy":1,"depth":34,"w":{"0":-0.19923707336332894,"1":0.015089624563674436,"2":0.08621632336499842,"3":-0.10302482982260527,"4":0.2168887025987022,"5":-0.4916917797447555,"6":0.11656546081275491,"7":0.12436310609369078,"8":-0.08817441295292656,"9":-0.20468346579377655,"10":0.09616054959768215,"11":0.07447015303096438,"12":0.011995728592807424,"13":-0.28341646558245365,"14":0.1313751248523336,"15":-0.07437617631334216,"16":0.2748142909583292,"17":0.050535706452122534,"18":0.25650930585899734,"19":0.02712000837478497,"20":-0.21121680064849802,"21":0.04755688341384615,"22":-0.032700187643952376,"23":-0.23269089212558128,"24":-0.0064986197695804425,"25":0.08591447829056714,"26":-0.042644257384540925,"27":-0.21602676600815598,"28":-0.23676310467341694,"29":-0.13804916601910444,"30":0.14538011382753913,"31":-0.13453654611484966,"32":-0.35771036053596594,"33":-0.06152806090213157}},{"sx":1,"sy":1,"depth":34,"w":{"0":-0.06544312373298188,"1":0.06258339085974043,"2":0.014612324088950007,"3":0.013081802220756819,"4":-0.11265147873246034,"5":0.12278223519076616,"6":0.09936871345039978,"7":-0.1203726132571339,"8":0.07689002167854676,"9":-0.28676665909151994,"10":0.1513975510104345,"11":0.14003555526644765,"12":0.032182477617609784,"13":0.05753502407015288,"14":-0.10344345319753674,"15":-0.12025649412543676,"16":0.04859316509907448,"17":-0.10567111021844312,"18":-0.18746654475153432,"19":0.22501810625771076,"20":0.108176430581944,"21":-0.10167531766998693,"22":0.29793979078118504,"23":0.026043127882855177,"24":-0.02061970382362404,"25":-0.17778761499925774,"26":0.051216040954201666,"27":0.47229222460607156,"28":-0.00612335240952091,"29":0.09324016296222348,"30":-0.207251749316399,"31":-0.4402703764369638,"32":0.029050270156895357,"33":-0.07521740314311925}},{"sx":1,"sy":1,"depth":34,"w":{"0":0.3116539911910596,"1":0.2776384301352123,"2":0.11129404344533432,"3":-0.14236705520161025,"4":-0.11078006627523979,"5":-0.17924680001066126,"6":0.23032483166372245,"7":-0.21068058063882614,"8":0.2682846735255657,"9":0.10020372885320071,"10":-0.15585395010057315,"11":-0.22305213698092338,"12":0.0030444727975416507,"13":-0.24850921803556436,"14":0.23374120075805388,"15":0.2258640642660684,"16":0.034007510863720565,"17":0.14921441428241666,"18":0.0686000327700305,"19":-0.09041374940994665,"20":-0.019416102878571442,"21":-0.08834610633677133,"22":0.07415971085004235,"23":0.1098321749357616,"24":0.18173714586344308,"25":0.28548837857022447,"26":-0.02674208927352366,"27":-0.11150012287949128,"28":0.05991135313760836,"29":-0.02610852321509094,"30":-0.1448026209160586,"31":-0.10932322599665303,"32":-0.06408208896873464,"33":0.029380240668369507}},{"sx":1,"sy":1,"depth":34,"w":{"0":0.06308170330801821,"1":0.1401392732272006,"2":-0.042215831644932755,"3":0.09222469802297979,"4":-0.22489463499351123,"5":-0.3990968599926239,"6":0.07780266190735355,"7":-0.04813401626305444,"8":-0.21543909364000255,"9":-0.10457327224416436,"10":0.04992626650671036,"11":0.09597508063703987,"12":-0.16714348230945406,"13":0.018819366886231804,"14":0.06467102716125385,"15":0.04000403143444272,"16":-0.07066270029257553,"17":-0.07752359797724365,"18":0.03051131821083092,"19":-0.015405160467909382,"20":0.20217278636437763,"21":0.20023647608133807,"22":-0.0580008476256924,"23":0.19340667632182132,"24":-0.00004650092792901839,"25":-0.10820316147741414,"26":-0.08662120710623478,"27":0.10301118129586605,"28":0.030230350166939358,"29":-0.043108336586497084,"30":0.026820039221380276,"31":0.04883647804665845,"32":0.22375063181669622,"33":0.14950331376602877}},{"sx":1,"sy":1,"depth":34,"w":{"0":-0.04020932875065557,"1":0.41959066178456983,"2":-0.16569931430638912,"3":-0.2452588708315725,"4":-0.131896617766063,"5":0.3175382847488274,"6":-0.17120847493693267,"7":0.06278345652306344,"8":0.02191711421491455,"9":0.4318934983694202,"10":0.19887477276348003,"11":0.17791813069311543,"12":-0.10053884320579791,"13":0.24713940611019508,"14":-0.373490634053261,"15":0.0027321482365779736,"16":-0.08517365640549887,"17":-0.30491476569605047,"18":0.1926335247641013,"19":0.21583805456327557,"20":-0.02023475056032401,"21":-0.1440353359932973,"22":-0.10278844462129409,"23":-0.10057630545146636,"24":-0.0018553264897667762,"25":-0.14127104748936456,"26":-0.014525963167584558,"27":-0.09661560361049693,"28":0.02512077150291296,"29":0.24008296511840027,"30":-0.23569219782180278,"31":-0.017247324247095866,"32":0.14752579733770857,"33":0.1912513762329452}},{"sx":1,"sy":1,"depth":34,"w":{"0":-0.14404724562020083,"1":-0.029960160839004123,"2":0.3924557969328538,"3":0.21686505376429646,"4":0.25191942379769594,"5":0.09789045933881863,"6":0.045776003347445623,"7":0.10791321251257607,"8":-0.25712748392709167,"9":0.10713467200830966,"10":-0.12023799733430807,"11":-0.3121496059165677,"12":-0.01839183817226006,"13":-0.023349856984351602,"14":-0.3893376398364932,"15":0.017124753051550094,"16":0.0906698457608817,"17":-0.015593550049439398,"18":0.09251376980563421,"19":0.017122204788713454,"20":0.3048147877180228,"21":-0.03194822523361942,"22":0.03062722603088268,"23":-0.13611090141305926,"24":-0.3615542925782138,"25":-0.03623066804666116,"26":-0.02679537439740426,"27":0.03183661073230698,"28":-0.3282496261483449,"29":0.07033543463047363,"30":0.03050942180860678,"31":0.2587046489416017,"32":0.023851526949699133,"33":-0.06709415662768063}},{"sx":1,"sy":1,"depth":34,"w":{"0":-0.042608548618931374,"1":0.09634199446392601,"2":-0.18826600200072646,"3":0.23204740642546462,"4":0.17250537459951099,"5":-0.06793082176773933,"6":-0.08848104056779887,"7":-0.025338933610458764,"8":-0.05106237062527027,"9":-0.11503934186201163,"10":-0.20267498083958305,"11":0.004843452501396355,"12":-0.28231822520437666,"13":-0.005659330941435087,"14":0.04868779841853311,"15":-0.3723448145197292,"16":-0.05788690343243767,"17":0.23023122887474387,"18":0.025528803509202894,"19":-0.06651468961875913,"20":0.16171847327429473,"21":0.06615008182829,"22":0.028160572278360003,"23":-0.01867130376697971,"24":0.1869900639473754,"25":0.20655478833960553,"26":-0.05362233540049836,"27":-0.17995860816802742,"28":-0.061379962172651986,"29":0.023622103098142264,"30":0.17184464848811504,"31":0.11487094635898575,"32":0.3987194725410392,"33":0.03619381421197552}},{"sx":1,"sy":1,"depth":34,"w":{"0":-0.05473022822221259,"1":0.32733744193134895,"2":0.034528325288741016,"3":-0.02091281413220203,"4":-0.08235734211592714,"5":0.0032570073865967795,"6":0.006292156647345331,"7":-0.2385811114453201,"8":0.02761198555032608,"9":0.2233827638447792,"10":0.0002259604979269915,"11":0.101383818072462,"12":0.0001314848388144651,"13":0.09343712138725895,"14":0.10513586016543436,"15":0.299080027897063,"16":-0.054222616914259045,"17":0.028638254253356202,"18":-0.2809070757106348,"19":-0.19274861518476583,"20":-0.35367957634607394,"21":0.4092962934938544,"22":-0.18049045195911365,"23":0.07956328859783786,"24":-0.23351819061079376,"25":0.14641014093774982,"26":0.07770819478023827,"27":-0.21375764640745107,"28":-0.03875716805199484,"29":0.09189702716417014,"30":-0.18113092911528686,"31":-0.060628171326790714,"32":0.0803268984726019,"33":-0.050503223853671765}},{"sx":1,"sy":1,"depth":34,"w":{"0":-0.009864400834153596,"1":0.23387199831400962,"2":-0.022802109889656294,"3":0.047709811396153864,"4":0.16076184392315296,"5":-0.13958202783579532,"6":-0.03959925552320854,"7":0.08792816423612702,"8":0.1255198542579453,"9":-0.034227004150710644,"10":-0.06214593473788328,"11":0.2822926177638174,"12":0.08087424886380187,"13":0.21737201702546072,"14":-0.18780706310738676,"15":-0.186518596439504,"16":-0.00718838297253608,"17":-0.2299520744029436,"18":0.0712469083125712,"19":0.014206158339014889,"20":0.0701848959546458,"21":0.25038133633933085,"22":-0.04189157490240151,"23":-0.007182286208302357,"24":0.008769161832895379,"25":0.06702663580862171,"26":-0.18033759383894782,"27":-0.12952914155185324,"28":0.36066811250904524,"29":-0.01896179197752962,"30":0.2294049732312254,"31":-0.2706424407407743,"32":-0.0547814373651568,"33":0.18443535702812955}},{"sx":1,"sy":1,"depth":34,"w":{"0":0.20069659520566663,"1":-0.02394151003598201,"2":0.07005749669324698,"3":0.20510788344913117,"4":0.20868415233171186,"5":-0.10968960072183048,"6":-0.11249296599516415,"7":0.00957444985394456,"8":0.07433430456927283,"9":0.21822913674863967,"10":0.2738004150827627,"11":-0.3855233201700005,"12":0.18123798017833112,"13":-0.21597442230729522,"14":0.07597400617125688,"15":0.0701052020655171,"16":-0.14401379751703522,"17":-0.025782442916039247,"18":-0.050331533531910215,"19":-0.162611105024543,"20":0.041362666201206044,"21":-0.20442184286113324,"22":-0.056644239168293725,"23":-0.20169548600652581,"24":0.12780534273444202,"25":0.16037967264526432,"26":0.3297616107349232,"27":-0.16484313194353709,"28":0.06720345462344217,"29":-0.09169619121265223,"30":-0.17000006168256926,"31":-0.08588173239127364,"32":-0.03874778772382455,"33":-0.05618667296022743}},{"sx":1,"sy":1,"depth":34,"w":{"0":0.006581772056213788,"1":0.28921138015312775,"2":0.10065541822738494,"3":-0.1776153017354869,"4":-0.1094814759509549,"5":0.1707035382277398,"6":-0.03337623962660158,"7":-0.07872490867555702,"8":0.2698508056978929,"9":0.09736580299289578,"10":-0.09252439997984457,"11":0.3770068686470394,"12":-0.11557921576100262,"13":-0.29848829445183767,"14":0.4823484945309139,"15":0.21667965847616888,"16":-0.05076743481678603,"17":-0.18293546540034666,"18":-0.049614747408201314,"19":0.0825806394760126,"20":-0.13307209468227277,"21":-0.2649971441265051,"22":0.009559549721726388,"23":0.10802398643338974,"24":0.20855899074655923,"25":-0.5565550557073636,"26":0.15132509163411123,"27":0.03171301433506639,"28":0.05194227604791341,"29":0.1350549902739394,"30":0.04765289548281519,"31":-0.18420995860569075,"32":0.1242511850753936,"33":0.11206657563010296}},{"sx":1,"sy":1,"depth":34,"w":{"0":-0.02022550013253676,"1":0.01149237645004511,"2":-0.11901663874245959,"3":-0.36186260500688255,"4":0.13802434236489114,"5":-0.07045315011135192,"6":-0.16567610738515984,"7":-0.28148021964351727,"8":-0.03411894119092056,"9":0.11385266798973834,"10":-0.0632283724820237,"11":-0.13932855275155817,"12":-0.20635699100936492,"13":0.02434091325554451,"14":0.02644524472023456,"15":-0.23930309334709507,"16":-0.39877216914040337,"17":-0.11381308783658882,"18":-0.4274072006703185,"19":-0.18569088548643828,"20":-0.22128317662044633,"21":0.016041639776861027,"22":0.07906575682383357,"23":-0.01304379979884849,"24":-0.04854863768092594,"25":-0.007041745359736804,"26":0.04098782549802314,"27":-0.32122987110335915,"28":-0.20488166025549062,"29":-0.12097545160482742,"30":0.40447103483624247,"31":0.020764731288796502,"32":0.17252961331473388,"33":0.19331736187597787}},{"sx":1,"sy":1,"depth":34,"w":{"0":-0.04750745408936946,"1":0.21036753341028716,"2":0.12108745161022791,"3":0.061018850035072146,"4":-0.017037128059193524,"5":0.15179107707264394,"6":0.13866042392086014,"7":0.21040370149212037,"8":0.052400600419759406,"9":-0.11442714443600094,"10":0.14754638591343022,"11":-0.297190744205934,"12":0.10255674420803164,"13":0.07739129779606864,"14":0.0005571191743279134,"15":0.11024246820518721,"16":0.3333860755614103,"17":0.10336483193396463,"18":0.1496554025016197,"19":0.04331757253858316,"20":-0.02180153341655143,"21":0.029699065088604697,"22":-0.0870276339212507,"23":-0.2194196470972919,"24":-0.02305192744442299,"25":-0.09328764974987601,"26":-0.05402423797080311,"27":0.04265242734414239,"28":-0.10337692230003315,"29":0.02490268052355242,"30":0.10565736075386818,"31":-0.02448254237983027,"32":-0.13708641624256906,"33":-0.24345548305080467}},{"sx":1,"sy":1,"depth":34,"w":{"0":-0.23251512459776214,"1":0.02372419801144939,"2":-0.11027679737052458,"3":0.2166431740609724,"4":0.07246998531942782,"5":-0.029016882209989776,"6":-0.005241874191536986,"7":-0.009078905587562565,"8":-0.04526360480071788,"9":0.16722100745068436,"10":0.22562491125591608,"11":0.08913776348755796,"12":-0.14973370859244575,"13":-0.09445758866772437,"14":-0.064235609614721,"15":-0.1281171134204471,"16":-0.10954824876298477,"17":0.0011206495004991894,"18":-0.0832257513741441,"19":0.2235232634979601,"20":0.19483344582779355,"21":0.05966123345589652,"22":0.12640669288017253,"23":0.06686938715365764,"24":-0.03952623317466173,"25":0.04298725189049684,"26":0.017758797444726856,"27":-0.1069362006285441,"28":0.2880291795759876,"29":-0.0688156934696462,"30":-0.07858489475806711,"31":0.06148642589838573,"32":0.009286935798320238,"33":-0.07430652131717227}},{"sx":1,"sy":1,"depth":34,"w":{"0":-0.03649072651604499,"1":0.31702909047857825,"2":-0.23662327587751192,"3":-0.1442547066341596,"4":-0.043690746114535974,"5":0.017736403376745792,"6":-0.1020162896176281,"7":0.09096056338389584,"8":0.12186103584035216,"9":-0.03913884844931732,"10":0.35777544418797314,"11":0.22224380979689412,"12":0.18015117041332496,"13":-0.1785269816672552,"14":-0.11273468765003575,"15":0.027319295229077754,"16":0.42445305679874934,"17":0.3420710444870699,"18":0.0011294284381439938,"19":-0.32289047670312077,"20":-0.2228851179741867,"21":0.179692117944754,"22":0.5080630394919068,"23":0.2191908123596219,"24":0.06452862467657305,"25":-0.3321585321640355,"26":-0.005878025643586744,"27":-0.08231437900152737,"28":0.1556193683534185,"29":0.21510528988453292,"30":-0.22998655659618736,"31":-0.05580202675100747,"32":0.11316489025346818,"33":-0.20882621934687415}},{"sx":1,"sy":1,"depth":34,"w":{"0":-0.13162821042371994,"1":-0.08343505893844433,"2":0.08769724818600907,"3":0.14720684595965386,"4":0.103553264157764,"5":0.09479018369539548,"6":0.2975083684738323,"7":-0.17319396186461355,"8":-0.10304020827781207,"9":-0.03049500303070973,"10":0.0026115130938127477,"11":0.17587598598869347,"12":-0.15441864708470618,"13":-0.06657959979991589,"14":0.25690231667484603,"15":0.04317980290939364,"16":-0.27335623786888236,"17":0.1781345984689451,"18":0.11745312160668563,"19":-0.09435222311783491,"20":-0.21495015751364488,"21":0.10025140339503118,"22":-0.18951063453264588,"23":0.028989880421522108,"24":0.14026527327242228,"25":-0.22846338917686324,"26":-0.2244955023360041,"27":0.15681346519234682,"28":0.3226764520905275,"29":0.00431628758185458,"30":0.06595774367715751,"31":0.011444963526197732,"32":-0.09609509124924613,"33":0.1311507548773256}},{"sx":1,"sy":1,"depth":34,"w":{"0":-0.26373108309601534,"1":0.030771349114804582,"2":0.1451379606616679,"3":-0.019446171273992455,"4":0.31714018580224634,"5":0.14686627291926718,"6":-0.29752799466698243,"7":0.011433900272066663,"8":-0.1746226734319494,"9":0.15478584583750168,"10":-0.29301092249594474,"11":0.25861974295918294,"12":0.10348618165471954,"13":-0.1440578622696032,"14":0.2599369008326997,"15":-0.21190805063773083,"16":-0.09383212323624578,"17":0.15006381770899688,"18":-0.2942888403037536,"19":-0.213234803227531,"20":-0.18321820740944084,"21":0.02918662270526861,"22":0.18085837355535697,"23":-0.051628356396407074,"24":-0.052224354200896876,"25":0.0190249305050254,"26":0.05773821273521021,"27":-0.007624469651651046,"28":0.2282751597999565,"29":0.0465195988859588,"30":-0.09168037846979184,"31":0.059238138002855045,"32":-0.05163085189927223,"33":-0.10968072946720445}},{"sx":1,"sy":1,"depth":34,"w":{"0":-0.07418988668216712,"1":-0.06557010155079425,"2":0.15824300518621473,"3":0.2517853018463828,"4":0.04882450622413099,"5":-0.22237552765839783,"6":-0.3348938243893841,"7":-0.2789078224430392,"8":0.21770167534570328,"9":0.1347838111956082,"10":-0.1686519892425679,"11":-0.31630880079313994,"12":-0.10630117181869576,"13":0.09792080273544738,"14":-0.15505047810918215,"15":-0.0633480589726389,"16":0.27874503181439614,"17":0.21911173860349895,"18":-0.34168752759174637,"19":0.06953086095997271,"20":-0.016312430495482075,"21":-0.17762370730916827,"22":-0.004739182705611904,"23":-0.20851613823788254,"24":0.008251027762580236,"25":-0.0010852529831148845,"26":-0.26178128155500224,"27":0.13481047153166556,"28":0.17153818507524368,"29":0.11224097972018797,"30":0.1586844220658717,"31":-0.2719599123595362,"32":0.06785906717237523,"33":-0.022401453747672932}},{"sx":1,"sy":1,"depth":34,"w":{"0":-0.025247829577475508,"1":-0.11484849856251896,"2":-0.27817327733064057,"3":-0.05575148272263719,"4":-0.09977231908089022,"5":-0.1347786491579554,"6":-0.15063614416457957,"7":0.2055383217849747,"8":0.1406372371562023,"9":-0.16085552879714754,"10":0.1486001796343479,"11":0.0941463972869651,"12":0.02737837334953553,"13":0.0815166540856338,"14":-0.11143907366776541,"15":-0.30119933537135785,"16":0.05367881591741718,"17":0.11037873031132034,"18":-0.2630205797644198,"19":-0.08063156063254924,"20":0.09326424024476378,"21":-0.09679749959344813,"22":0.1684842984793821,"23":0.0521005043811817,"24":-0.0017015295170516337,"25":0.04943592481412325,"26":-0.08357958282894526,"27":0.2488496780743616,"28":-0.08433294185102401,"29":0.11919120179441488,"30":-0.04942534199873687,"31":-0.13459464562299236,"32":-0.19794393847440203,"33":-0.04808499341962192}},{"sx":1,"sy":1,"depth":34,"w":{"0":-0.1587555629595461,"1":0.2177678350399653,"2":-0.18289258255383628,"3":-0.06684736942300304,"4":-0.11259144439463518,"5":-0.0030463787055377205,"6":0.022160497407883298,"7":-0.25043265323416697,"8":0.09893088550611732,"9":-0.13072007122009474,"10":-0.13027877652754127,"11":-0.12375270615659528,"12":-0.13292191878986626,"13":-0.223243511541236,"14":0.0312302812629565,"15":0.07019466581563771,"16":0.002172735535300713,"17":0.0183315120496793,"18":0.055454527010136916,"19":-0.10631269424919285,"20":0.2459144849763227,"21":0.023215128311251988,"22":-0.19813568618819846,"23":-0.10651772802586927,"24":-0.0033931051218003654,"25":0.37231856227119775,"26":0.005029006403980676,"27":-0.13235984928756103,"28":-0.10611881070312869,"29":-0.1684305285340442,"30":-0.21347228760566236,"31":0.28936640597264957,"32":0.34598491336268367,"33":0.2516826165662414}},{"sx":1,"sy":1,"depth":34,"w":{"0":0.3151546982643625,"1":0.07057667753537535,"2":0.2057670191086072,"3":0.11754511663663395,"4":0.3170892840608039,"5":-0.008809172741745152,"6":-0.19931662127513833,"7":0.0648494825883378,"8":0.1082243118795226,"9":-0.1202101183479694,"10":-0.04789860615803442,"11":0.17310473401958804,"12":-0.17277489050834846,"13":-0.18951762136716777,"14":-0.01173331817505129,"15":-0.039455785311019446,"16":0.05983474520482496,"17":-0.05372343334078294,"18":0.1018055694776807,"19":-0.17761791930633342,"20":0.20616165708817968,"21":-0.19430231847902812,"22":-0.3124689405316964,"23":0.38225009434374774,"24":-0.2487856024764859,"25":0.023829550519736366,"26":-0.12618289874407743,"27":0.054845353205989794,"28":-0.1602295688542865,"29":-0.09412537748155785,"30":-0.26283154545823184,"31":-0.13845107735366696,"32":0.0017435936632872705,"33":0.07649657636248483}},{"sx":1,"sy":1,"depth":34,"w":{"0":-0.17520225021749186,"1":0.024417592785163044,"2":-0.09724276090792335,"3":-0.06997799202432811,"4":0.10795215671501504,"5":0.056957583973691085,"6":0.12437241381538634,"7":-0.14546495068955004,"8":0.19432729439668306,"9":0.09638074998717581,"10":0.03149661904418442,"11":0.1488383192985641,"12":0.1785136849426517,"13":-0.21899124442715528,"14":0.11335778591361506,"15":0.00526592556469655,"16":-0.14160478654357786,"17":-0.004082243360948492,"18":0.3000744268988079,"19":-0.1756446463273519,"20":0.06708628731822192,"21":-0.016133243901439297,"22":-0.009578510948853427,"23":0.13323632035200642,"24":0.22596231178624024,"25":0.10997626476353482,"26":-0.15610628814840855,"27":-0.04272974230896501,"28":-0.06544613712509499,"29":0.20885450881446213,"30":-0.019826918053447565,"31":-0.29141405070270815,"32":-0.051927215592784175,"33":0.08956779090916624}},{"sx":1,"sy":1,"depth":34,"w":{"0":0.048434485948362124,"1":-0.05376319243106618,"2":0.14526586645953363,"3":-0.09606467355678719,"4":-0.21477655982050817,"5":0.1707480168947898,"6":0.10204263478863003,"7":0.00313704909227722,"8":-0.13882954542783585,"9":0.3288161097751871,"10":0.0996386611508755,"11":0.3719903236111453,"12":0.03685267733562027,"13":-0.051674131615575984,"14":-0.033171740373735444,"15":0.09867352301645614,"16":-0.2619026518236089,"17":0.006931001838019554,"18":0.20069845597860522,"19":0.19001502395375827,"20":-0.17439388167217362,"21":-0.05885868073978821,"22":-0.013621743542380061,"23":-0.1831202712019838,"24":0.33858532549125864,"25":0.06363810809795567,"26":-0.19922426488192588,"27":0.12767922546244856,"28":0.03271864321110176,"29":-0.292784344075285,"30":-0.01605524518521397,"31":0.07345013563927809,"32":-0.03591688378787689,"33":-0.18768255357446673}},{"sx":1,"sy":1,"depth":34,"w":{"0":0.11811119895148493,"1":0.0785277361381637,"2":-0.08526951685779052,"3":-0.02860416684515204,"4":0.01552838809020998,"5":0.12769772923045986,"6":-0.052925838193322174,"7":0.1474723733637624,"8":0.028822804608629883,"9":0.0065362606684208025,"10":-0.19336982808926462,"11":0.03653274691044136,"12":0.09509185194467107,"13":0.16729127379912934,"14":0.0007081903832519396,"15":0.05117621154224463,"16":0.0783975680813912,"17":0.32081001008437876,"18":0.2536358301556135,"19":-0.1422425700417357,"20":0.040554467786600046,"21":-0.0301632990027479,"22":-0.008046827093387453,"23":0.07826815291207835,"24":0.40878456521964696,"25":-0.11547924307147471,"26":0.012576540207612355,"27":0.10880412588552617,"28":-0.15032019840511218,"29":0.23155828860892147,"30":-0.1295942429229169,"31":0.17670032262336835,"32":0.36250959175893205,"33":0.012985119018476736}},{"sx":1,"sy":1,"depth":34,"w":{"0":-0.2566310767410841,"1":-0.1567253788844084,"2":-0.013962156689923623,"3":-0.0359139625719674,"4":0.2124495436615357,"5":-0.1748449620328259,"6":0.022784375095991623,"7":-0.09507629471487325,"8":-0.39173166391658293,"9":-0.010211373629390681,"10":-0.06688202754772156,"11":-0.13829999760770584,"12":-0.060406137824969126,"13":0.11533691214279922,"14":-0.19252706006216058,"15":-0.2885268371496724,"16":0.06092449180240063,"17":-0.06831022783710557,"18":-0.09661658508586486,"19":0.10836600196067873,"20":0.017830256917745386,"21":0.10772191168359037,"22":0.0066419167202635175,"23":-0.11140885498761738,"24":-0.12135148117159018,"25":-0.16311106241504258,"26":-0.03219149307492911,"27":0.07244474082212353,"28":0.058879115161515914,"29":-0.18891736679500326,"30":-0.21359874109723137,"31":0.2180446762692209,"32":0.2295398101224075,"33":0.07443679376896817}},{"sx":1,"sy":1,"depth":34,"w":{"0":-0.05788723637925512,"1":0.0701565011570848,"2":-0.3162392092166816,"3":0.15444478178960072,"4":0.07884679282045884,"5":-0.09832734954389566,"6":0.17278839960803555,"7":0.0941510137435663,"8":0.045032178290893746,"9":0.02085440259390515,"10":-0.03498577786119314,"11":0.12015107614112404,"12":0.23174837955276809,"13":-0.0793871300749702,"14":0.11529315821476978,"15":0.035928921403663064,"16":0.3337187684547955,"17":0.062103974812620644,"18":0.14471535948872752,"19":0.10989369225134937,"20":-0.09557426787504611,"21":-0.16486689454262568,"22":0.07943666026957619,"23":0.2442865289928261,"24":-0.049155991717245336,"25":-0.00040708406251753026,"26":0.003246264843734167,"27":-0.13757620944738363,"28":-0.09077271254054631,"29":-0.08263051523268708,"30":-0.1084608113543381,"31":-0.17330233779130125,"32":-0.10085276865969699,"33":-0.22595130000188382}},{"sx":1,"sy":1,"depth":34,"w":{"0":0.20322929985700994,"1":0.20208611211331703,"2":-0.14913989876873016,"3":-0.14893292754504686,"4":-0.06937597777993308,"5":0.02926650277837501,"6":-0.022056035740068276,"7":-0.15266203431158692,"8":0.04703791122767593,"9":-0.13130939202758396,"10":-0.014356848634373502,"11":0.1308922238324899,"12":0.0640290862526002,"13":-0.014109445786619122,"14":0.1932158733350145,"15":0.19854008461143316,"16":0.018469703656627565,"17":0.31126383604502345,"18":-0.04474060312952826,"19":0.09512729367229779,"20":0.1886715963039576,"21":-0.0475573275856175,"22":0.2377703701919792,"23":0.12149248508202122,"24":0.05150275196753239,"25":-0.35700515466623134,"26":-0.007216295759596394,"27":-0.12599531483981946,"28":0.16906924014326657,"29":0.060652681327078954,"30":-0.0385181660360248,"31":-0.07084945245550289,"32":0.11846772867050129,"33":0.41250295703967277}},{"sx":1,"sy":1,"depth":34,"w":{"0":0.15613990906961955,"1":-0.11059568861517503,"2":-0.03534371921569369,"3":0.027568505417720286,"4":-0.051888663342498496,"5":0.042911073259530016,"6":-0.1522753990034711,"7":-0.15815081878121162,"8":0.13027188586555788,"9":0.09791673659239779,"10":0.03362029506938629,"11":0.00854168601228917,"12":-0.20573963207689036,"13":0.15884922170782273,"14":0.029245909083282857,"15":-0.1177545215871549,"16":0.28061936365329465,"17":-0.23070579241969702,"18":-0.1978062349087289,"19":0.10892578486909958,"20":0.0715609487130674,"21":0.14944003955691443,"22":0.10633194858018097,"23":0.02721421527523085,"24":0.0984700321903388,"25":-0.12060095824554934,"26":-0.20403684360556978,"27":-0.1195862999833146,"28":0.11491695499384723,"29":0.01965924129275895,"30":-0.05778463487588091,"31":0.059280252655849935,"32":-0.179796889413057,"33":-0.00585420115438584}}],"biases":{"sx":1,"sy":1,"depth":30,"w":{"0":0.08995670338326879,"1":0.10713690676490879,"2":0.0966571470029334,"3":0.09659518073701936,"4":0.11801528431744196,"5":0.09039168589585046,"6":0.09710393151882038,"7":0.09765293277725927,"8":0.11194684455119151,"9":0.11691812549776623,"10":0.09373298818309782,"11":0.11481831211234611,"12":0.11640602557112881,"13":0.10255449659519633,"14":0.09802314163094941,"15":0.09631150912464925,"16":0.09755865020418861,"17":0.09818769791399473,"18":0.10847056534615582,"19":0.10186997114632021,"20":0.0987335974225523,"21":0.11841348846062374,"22":0.1039583840523788,"23":0.10670994294774523,"24":0.10545810489555017,"25":0.1281994236184703,"26":0.09859493308255839,"27":0.08980900945970985,"28":0.1030029251873334,"29":0.0883466644545368}}},{"out_depth":30,"out_sx":1,"out_sy":1,"layer_type":"relu"},{"out_depth":30,"out_sx":1,"out_sy":1,"layer_type":"fc","num_inputs":30,"l1_decay_mul":0,"l2_decay_mul":1,"filters":[{"sx":1,"sy":1,"depth":30,"w":{"0":-0.0014155163819799027,"1":-0.24742006482980533,"2":0.1543395619651078,"3":-0.061293176559143535,"4":-0.4185463360853074,"5":0.11572424936932113,"6":-0.12400629178843939,"7":-0.050627637795427796,"8":-0.10995651072917106,"9":0.15565472572489325,"10":0.3117522774488869,"11":0.23448969581209925,"12":-0.08040272925443726,"13":0.06932961021247426,"14":-0.3016255192436778,"15":-0.06703991550777073,"16":-0.053215026391762364,"17":0.2294935177738905,"18":-0.10318838310624896,"19":-0.09830135655902439,"20":-0.23504068505569162,"21":-0.04809307459173168,"22":-0.015965984752995828,"23":-0.1750141735114368,"24":-0.3246668340947966,"25":0.12793941677795415,"26":-0.056677793865974255,"27":0.3945047564985538,"28":-0.12950733818530683,"29":0.14290646452876732}},{"sx":1,"sy":1,"depth":30,"w":{"0":0.11002206081060242,"1":-0.19861959622098097,"2":0.010658644836187036,"3":-0.18043704658482346,"4":0.01511862975365068,"5":0.0315165584202542,"6":0.08408098395274965,"7":0.08151362069788125,"8":-0.05209174955562022,"9":-0.016960067476762142,"10":-0.04706409849865064,"11":0.2840123519174451,"12":-0.12026026702636843,"13":-0.03564545108948055,"14":-0.16362878638303682,"15":0.0740446383347659,"16":0.03867493563881031,"17":-0.0844106152637357,"18":-0.15465044717982512,"19":-0.1381790480927732,"20":0.04021479668642021,"21":0.18982692116874678,"22":-0.18509144258712837,"23":-0.12654974491353146,"24":-0.23601181632236198,"25":0.1336342836652959,"26":0.19199149212027233,"27":-0.39505228348563803,"28":-0.23665895453383068,"29":-0.13686103097913538}},{"sx":1,"sy":1,"depth":30,"w":{"0":-0.2025612600988364,"1":-0.0786581648786092,"2":0.2958661928730034,"3":-0.17716350306612585,"4":0.0559789229247411,"5":0.2596249997383053,"6":0.2121126755712103,"7":-0.14807466143128642,"8":-0.022756967383364236,"9":0.06792819643035151,"10":0.0006186365729609186,"11":0.29691708310489845,"12":-0.15473983590524235,"13":-0.04826608349360787,"14":0.06985304947388234,"15":-0.3969884889948059,"16":-0.07106849645916133,"17":0.11356726837155683,"18":-0.03904895656442406,"19":0.19200559388409216,"20":0.10423643894661683,"21":-0.1568790080477783,"22":-0.0504719829121707,"23":0.27621348140252444,"24":0.14324272868458382,"25":0.07749843157936041,"26":0.10300848914637754,"27":-0.11058664299399329,"28":0.1651575927807882,"29":-0.12496289198413689}},{"sx":1,"sy":1,"depth":30,"w":{"0":0.08434870871687962,"1":-0.010864831542562622,"2":-0.16924576165169652,"3":-0.01956719071276212,"4":0.03673865170799638,"5":-0.18627025783196027,"6":-0.44107808215094335,"7":0.06163917585243746,"8":0.16012128214370713,"9":0.14130471497916106,"10":0.17663312799273811,"11":-0.06964050753534846,"12":-0.12403401490808424,"13":0.08130201418374386,"14":0.029642153042752747,"15":-0.18148074296158762,"16":0.08278069105673617,"17":-0.36591182512921683,"18":-0.16150822101835777,"19":-0.02691585583331436,"20":-0.08871138199845692,"21":0.11779584671882695,"22":0.14567481899958387,"23":0.09860630261038444,"24":-0.39659827966000766,"25":-0.24572734754156936,"26":0.011890364778816255,"27":0.21223596788986787,"28":-0.09774367154790511,"29":-0.1724694149755012}},{"sx":1,"sy":1,"depth":30,"w":{"0":0.07611484826986979,"1":-0.19509959290593698,"2":0.034211248558196385,"3":0.33264796480571496,"4":0.11593710237792733,"5":-0.05876696034417209,"6":-0.0359762307638958,"7":0.23106720778384943,"8":-0.13672132894578345,"9":0.12810149617900443,"10":-0.2894370892903786,"11":-0.06708843754339583,"12":0.4088667687425418,"13":-0.2273067685970865,"14":-0.15567836009916142,"15":0.12031710190489305,"16":-0.17463220953476802,"17":0.08233604553086275,"18":0.10705774471138191,"19":0.04447967377481134,"20":0.07220235641188724,"21":0.2739706181228551,"22":0.1568261028041975,"23":0.15364015148421395,"24":-0.1223961115827011,"25":0.12768228963039344,"26":0.06479467428196997,"27":-0.231511636098656,"28":0.4178758545221918,"29":0.18899434455788114}},{"sx":1,"sy":1,"depth":30,"w":{"0":0.30170494168103423,"1":0.1744275394037766,"2":0.034449157657147844,"3":0.05897776902253757,"4":0.0741869132267046,"5":-0.03571804037036461,"6":0.17445809796466766,"7":-0.1835168777631888,"8":0.0720951361500416,"9":0.15917485636481823,"10":-0.1998153093519613,"11":0.23556844669688792,"12":0.20024761868483443,"13":-0.19434790663547363,"14":-0.06901996743535635,"15":0.10370712386867714,"16":0.1308054621512712,"17":0.007996714527308123,"18":0.2555556312512394,"19":-0.18892258038650914,"20":-0.39658182898048344,"21":0.027085828820239192,"22":0.06035325296269585,"23":-0.03269035880016705,"24":0.09977892280945809,"25":0.20005410713319124,"26":-0.04438420687961055,"27":-0.19862023476776913,"28":0.07423681845495965,"29":0.19509175185416}},{"sx":1,"sy":1,"depth":30,"w":{"0":-0.17477697542841036,"1":-0.1876854832155468,"2":0.002325222531427324,"3":-0.09074452505040113,"4":-0.13357082999936487,"5":0.08554630365686314,"6":-0.09875781404521236,"7":-0.009106759897729778,"8":-0.1894471078575079,"9":0.1955547664529677,"10":0.08952792449386757,"11":-0.05336351161597742,"12":-0.1752824504454916,"13":0.27835111414369673,"14":0.03570700946133624,"15":-0.08644270679346132,"16":0.05283097306766047,"17":-0.021999022667738816,"18":-0.04149133708657861,"19":0.3655572634077933,"20":-0.3379856933816144,"21":0.13229600041674747,"22":-0.23031704514731813,"23":0.21132925716340345,"24":0.13014742859126796,"25":0.1935291832813014,"26":-0.020692684236199833,"27":0.0350368099738379,"28":-0.073374135459329,"29":0.126937786684312}},{"sx":1,"sy":1,"depth":30,"w":{"0":0.21878227669039538,"1":0.016018116666749602,"2":-0.03125990325444848,"3":0.10420339373058511,"4":-0.04696106760075166,"5":0.20282872654194845,"6":-0.061900688878248726,"7":-0.3701333193958566,"8":0.0006066267015070182,"9":0.1476031127993999,"10":0.17882098081240416,"11":-0.10422648148735009,"12":0.2574739801415813,"13":0.303019649206999,"14":-0.05349264653753836,"15":0.09468946285511869,"16":-0.009731089169248839,"17":0.20174719271074054,"18":-0.23804359692444793,"19":0.2553649900982504,"20":-0.12781843875119847,"21":0.022180274656772497,"22":-0.044498323133986016,"23":-0.2696634414638522,"24":-0.004455762811694345,"25":-0.20429520416776265,"26":0.11757911691854558,"27":-0.048451853545180945,"28":0.16865355164031146,"29":-0.11915025151017529}},{"sx":1,"sy":1,"depth":30,"w":{"0":-0.035670419808684906,"1":0.08475695883761947,"2":-0.13985257535580703,"3":0.10946615737620642,"4":0.31317512205293263,"5":0.13906905033466194,"6":0.06883185828146494,"7":-0.0037289430222254105,"8":0.3089095337256402,"9":0.16273290373694185,"10":0.06493130303227788,"11":0.13958948782347794,"12":-0.0955517034495002,"13":-0.06792220947114606,"14":-0.15872729858305207,"15":0.006276929752895721,"16":-0.02763172885950299,"17":-0.10683877195139138,"18":-0.27247133716185185,"19":-0.18737227225904954,"20":0.4950268375916971,"21":-0.036003641471723316,"22":0.12180972592828138,"23":-0.028991980568915495,"24":0.10006116738976423,"25":0.10238273815492396,"26":0.49482169973474877,"27":-0.17185617180805762,"28":0.3230771077040677,"29":-0.0993979223172502}},{"sx":1,"sy":1,"depth":30,"w":{"0":0.03195887136510969,"1":-0.18042213843061466,"2":0.13601073687656368,"3":0.009663783986571608,"4":0.15725315026560097,"5":-0.22711927563866885,"6":-0.1021691444334385,"7":0.020615704008454052,"8":-0.3052910286280687,"9":0.06333389740504959,"10":-0.08610408151425043,"11":-0.09087982753937474,"12":-0.046796414652630756,"13":0.11000133084606446,"14":-0.015160313767630827,"15":0.28482184231310675,"16":-0.10314642415130831,"17":0.32071581194092247,"18":0.31937389594160975,"19":0.16361643909247736,"20":-0.1962210894182032,"21":-0.3419442087001188,"22":0.3019572764881463,"23":-0.024240637383160457,"24":-0.033319083265789216,"25":-0.14039152951384776,"26":0.13617623505598353,"27":-0.09203608513635421,"28":-0.2581589751130557,"29":0.11326455765559591}},{"sx":1,"sy":1,"depth":30,"w":{"0":0.11836342189994366,"1":-0.05314120491694601,"2":0.05189431906237105,"3":0.0908900429878263,"4":0.2136786289266752,"5":-0.10606067640724151,"6":-0.05965805035627884,"7":-0.10156599379697749,"8":0.2924882420987537,"9":-0.2080477005128677,"10":-0.10197135128182498,"11":0.17143375676560668,"12":-0.055945257754804786,"13":0.1577350458631673,"14":0.12236912958897538,"15":0.07787887804796066,"16":-0.5097414759703914,"17":0.025707158414145732,"18":0.01612084283077794,"19":-0.14039149331693832,"20":-0.2412277358666027,"21":-0.144327911985247,"22":-0.027747328502171015,"23":0.11791822482640765,"24":-0.007634387624834484,"25":-0.0972360011148671,"26":-0.15791962057153217,"27":-0.08863210601503933,"28":-0.19486659167177028,"29":0.07288298448445797}},{"sx":1,"sy":1,"depth":30,"w":{"0":-0.013963218884513625,"1":0.19903915812747883,"2":0.3664109986675569,"3":0.2360688742662825,"4":0.09800142089754373,"5":0.08660170014400803,"6":0.1363439046540454,"7":0.058913484210987334,"8":-0.058320616287722615,"9":-0.04430533379517895,"10":-0.17743912013936622,"11":0.05855633680499228,"12":-0.06399533610515885,"13":0.00945353599233732,"14":-0.04556022743898651,"15":-0.1799077749840226,"16":-0.12340337661344165,"17":-0.057091554902368814,"18":0.18054863979562824,"19":0.18226396976467615,"20":0.029014111498125755,"21":0.1794670857743165,"22":-0.05156979058462884,"23":0.24339040617679047,"24":0.22659952081029,"25":0.21988159837225152,"26":-0.04660101553859726,"27":-0.16588459379527026,"28":0.11015786576305694,"29":-0.12944445199609758}},{"sx":1,"sy":1,"depth":30,"w":{"0":0.04853497872831774,"1":0.1857555129207695,"2":-0.0975008949059112,"3":0.051381335327063876,"4":-0.042305760338947944,"5":-0.15159903078747167,"6":-0.13598259465897447,"7":0.16603386773721454,"8":-0.1063087264126303,"9":-0.13353176156276023,"10":0.17256222289914191,"11":0.13115480584263184,"12":-0.025958076422041877,"13":-0.15161938032461314,"14":0.012239154180171933,"15":-0.05396941483923485,"16":-0.11639508608455122,"17":0.3738081981344337,"18":0.0996644362348222,"19":-0.12846815575757958,"20":0.17698393257362857,"21":-0.2045480932339089,"22":0.02733729812450868,"23":-0.18900148079348017,"24":-0.4306781795625432,"25":0.30202128437912135,"26":-0.10966167749489632,"27":-0.23555478052052803,"28":-0.28898756827480016,"29":-0.05926108071138168}},{"sx":1,"sy":1,"depth":30,"w":{"0":-0.06199759938310883,"1":0.047443956495087154,"2":-0.011362822480620564,"3":0.00728367000833272,"4":0.1951612606851767,"5":-0.08274755508122275,"6":0.032635657309611495,"7":-0.1592202989448855,"8":0.16837940790650072,"9":-0.2575064093210008,"10":-0.21156265314426217,"11":0.10524055237475322,"12":0.16558782035921524,"13":-0.045169238827491937,"14":0.13026444241615226,"15":-0.07570804404807495,"16":0.33105717469528095,"17":-0.1645777740984875,"18":-0.38103257587893435,"19":-0.030273207932256345,"20":-0.10612138187467168,"21":-0.14009677268664755,"22":-0.14201377258415182,"23":0.28859862921930457,"24":0.08344644103114471,"25":-0.12987800712696013,"26":-0.4100520278252823,"27":-0.13927329814625364,"28":-0.26404382882624655,"29":-0.06701096743293111}},{"sx":1,"sy":1,"depth":30,"w":{"0":0.06121495282270768,"1":0.12503447107678617,"2":-0.16027092921542083,"3":-0.025063443076030558,"4":-0.3046757610940559,"5":0.01643092819819144,"6":-0.015005765733295552,"7":-0.2775449741899745,"8":0.04992408272688444,"9":0.07389594456171555,"10":-0.1397839248218009,"11":-0.0943753630629135,"12":0.062582689201888,"13":0.008035755437095879,"14":-0.16079158689142137,"15":-0.12252931213196801,"16":-0.09118452954079792,"17":-0.1021763762227928,"18":0.18547134029522402,"19":-0.1454895754832667,"20":-0.19886978921224982,"21":-0.007900534014817304,"22":0.002726105013362703,"23":0.20419002907747077,"24":-0.01716883712367301,"25":-0.008107819036270413,"26":0.13551920460369404,"27":0.22564760959508146,"28":0.048526596058274515,"29":-0.1392137246443829}},{"sx":1,"sy":1,"depth":30,"w":{"0":0.18483446017152655,"1":-0.1402791920260131,"2":-0.08579655967175126,"3":-0.22762736556643548,"4":0.015515860168595061,"5":-0.008767717953387717,"6":0.1281108595169579,"7":0.3942901483463638,"8":-0.02255575078003034,"9":0.16419343897487743,"10":0.018180115675326906,"11":-0.03072409662929674,"12":0.14169303018312884,"13":0.22779807248277611,"14":0.13181675743745677,"15":-0.18235553493908543,"16":-0.10658258914811101,"17":-0.03283309955705727,"18":0.1864134100473929,"19":0.02180961729290898,"20":-0.12414251633871042,"21":0.10025085692122333,"22":-0.14646702556375477,"23":-0.11766988765331164,"24":-0.001365446211842233,"25":0.0063972356961489295,"26":0.14851247283233326,"27":0.11038244013549187,"28":-0.08179340212288484,"29":0.18957961846282487}},{"sx":1,"sy":1,"depth":30,"w":{"0":0.036685006529919975,"1":0.32903200762763685,"2":-0.04519740615175875,"3":0.23728237588905288,"4":0.338236320728522,"5":0.32414389510860825,"6":-0.05129753429072706,"7":0.17526364334761146,"8":0.18883064481064868,"9":-0.3157904618220926,"10":-0.08616228713920254,"11":-0.25238213792941916,"12":-0.08540080612758655,"13":0.05447935419945247,"14":-0.19905967790705972,"15":0.227100453753782,"16":-0.09398211579015962,"17":0.04387476317892728,"18":0.03229406349542108,"19":0.09968466438817315,"20":-0.11689060750892409,"21":-0.11557285778169862,"22":-0.029567796322967334,"23":0.21382259671774012,"24":-0.11317997884806157,"25":-0.24223526768432738,"26":0.26375866445858237,"27":-0.10491021177373613,"28":-0.20787887916327383,"29":0.1819547357499948}},{"sx":1,"sy":1,"depth":30,"w":{"0":-0.07229850865444282,"1":0.017825395508395566,"2":-0.20631270654206973,"3":-0.04132758068473663,"4":-0.27242601423589,"5":-0.23679808285639667,"6":0.2544695566799062,"7":0.2319918247587473,"8":-0.10658146053698664,"9":-0.13034103866475644,"10":0.0897644268641942,"11":0.23143657484691604,"12":0.02585323742224916,"13":0.010585834681989675,"14":0.21543147387488892,"15":0.2226813637431812,"16":-0.5112723472224387,"17":0.030403398398009103,"18":-0.10720360602399033,"19":-0.3637046994261959,"20":-0.12577307625834117,"21":0.1496057265306607,"22":-0.1360315624036743,"23":-0.09255298624745165,"24":0.019105333450224603,"25":-0.06537990325339774,"26":-0.0734793241208642,"27":0.07261469295370031,"28":0.16882798899862608,"29":-0.039927406043221376}},{"sx":1,"sy":1,"depth":30,"w":{"0":0.21741895171710296,"1":-0.2505342354766204,"2":0.029630635550731213,"3":-0.26410480864271574,"4":-0.17085671001109556,"5":0.17489221643511738,"6":0.2353924551860729,"7":0.014744390973512269,"8":-0.24260702852288407,"9":-0.020736097592904845,"10":-0.21105889181088325,"11":-0.1616438013743668,"12":-0.03576343114382935,"13":0.07725386321574225,"14":0.05109306922958439,"15":-0.16978392845449403,"16":-0.016254835868940293,"17":0.016467825696955592,"18":0.10691341675150855,"19":0.13174513778961425,"20":0.009481450447450928,"21":-0.07804200349004678,"22":0.17001934750135778,"23":0.1617259155081574,"24":-0.31184392148242573,"25":0.07523795649442241,"26":0.06224729016984683,"27":0.26689580582221994,"28":0.26282423496722807,"29":-0.3370008560632345}},{"sx":1,"sy":1,"depth":30,"w":{"0":-0.04139201533875385,"1":-0.06804412368210158,"2":0.09077492307911043,"3":0.12105632565846915,"4":-0.10512227536215397,"5":0.22873324625712943,"6":0.09174515108024142,"7":-0.053870751949560536,"8":-0.04243158785140416,"9":0.23645234525910214,"10":-0.13152504847925156,"11":-0.04704891407181987,"12":-0.2065716024610544,"13":-0.04586150053619075,"14":-0.24487457560753825,"15":0.001786900615068631,"16":0.04623535066658393,"17":0.04321305135132742,"18":0.06778533989981528,"19":-0.14833830474217008,"20":0.06311364495915962,"21":0.12435441273560636,"22":0.23067074506468713,"23":-0.07361434475406267,"24":-0.029494946250990493,"25":0.16868270378969052,"26":-0.19539915978270095,"27":0.2366699401286214,"28":0.1294054930242711,"29":-0.11098516650533867}},{"sx":1,"sy":1,"depth":30,"w":{"0":0.13174591696459206,"1":-0.06920056101135953,"2":0.10554056071351971,"3":0.042468519916354905,"4":0.16988752384235142,"5":0.14881857683348929,"6":0.058128799662135855,"7":-0.0731930402161068,"8":0.08233806262042889,"9":0.12049633799310314,"10":0.19266369340576214,"11":-0.18007686660670008,"12":0.22085150199577283,"13":0.07537563441663944,"14":-0.15347079187862783,"15":-0.043600970474000085,"16":-0.17502209951248274,"17":-0.07335979164714841,"18":0.25370754973441045,"19":-0.10107653931692144,"20":0.08523235875359028,"21":-0.05729189823939787,"22":-0.031324778359843417,"23":0.15279239268074696,"24":0.009082176680033464,"25":0.1632481121082512,"26":-0.022781789619708368,"27":0.04669814553934607,"28":-0.143776464139358,"29":-0.2218475991536934}},{"sx":1,"sy":1,"depth":30,"w":{"0":0.18837072529630336,"1":0.06909743023945922,"2":0.32404101525946627,"3":-0.13542202770719997,"4":-0.18767691571209263,"5":-0.20606119813002205,"6":0.17141256805678934,"7":-0.463436904930064,"8":-0.14616578296166438,"9":0.18508328897499754,"10":0.25488885229889857,"11":0.10615751499189884,"12":-0.070021175290073,"13":0.0029328934968586027,"14":0.11460876196602218,"15":-0.2974438115076212,"16":-0.04546649921518171,"17":-0.2585736004693437,"18":0.005179094201155203,"19":0.05968601309085423,"20":-0.07501848799495928,"21":-0.10766700458243735,"22":-0.026733210225531264,"23":0.19394328836331173,"24":-0.39507732539718043,"25":-0.1021621601922098,"26":-0.04444259381214865,"27":-0.19125418455536708,"28":0.17410780902422943,"29":-0.11509091465629466}},{"sx":1,"sy":1,"depth":30,"w":{"0":-0.07348113471031578,"1":-0.21524805772207717,"2":-0.2642564416586271,"3":-0.06235219266428524,"4":-0.04902420141282975,"5":-0.2717284796056282,"6":0.10591398760073224,"7":-0.11534002328957078,"8":0.00430143767454694,"9":0.1689459559613902,"10":0.026779088116979207,"11":-0.05133668218285506,"12":0.16817212261055356,"13":0.1052554670921087,"14":-0.09031441046979942,"15":-0.014703157246795325,"16":0.10454551191258966,"17":0.07749421774796518,"18":-0.1372107147409592,"19":0.03660420529971552,"20":0.028136739036335474,"21":-0.14510104323593156,"22":0.4194194317312569,"23":0.1301763876765773,"24":0.05812151015531689,"25":-0.10203591352287023,"26":0.14590231637831383,"27":-0.03470633997851683,"28":-0.17910236984649341,"29":0.27860969922049555}},{"sx":1,"sy":1,"depth":30,"w":{"0":0.04390668175138022,"1":0.30431787844259495,"2":0.02251268041960626,"3":-0.4034110561718889,"4":0.0035365690073727025,"5":-0.02191442194523621,"6":0.1351862843835498,"7":0.13209268122890228,"8":0.1311373645707387,"9":0.2467488409715647,"10":-0.2743474935071928,"11":0.08292480169599831,"12":0.07105170681076875,"13":-0.05025375208271036,"14":-0.3269226698767215,"15":-0.10381077401116297,"16":-0.06786687207453322,"17":0.2862193895147298,"18":0.05723473975889835,"19":-0.008381404670792793,"20":0.17656818517448344,"21":-0.026478481476043862,"22":0.11960709147729227,"23":0.31771577455759464,"24":-0.05986996527301622,"25":0.11015799005555248,"26":-0.1156072161914123,"27":-0.21443497547916904,"28":0.04686127936863961,"29":-0.12468030332376585}},{"sx":1,"sy":1,"depth":30,"w":{"0":0.09873074001332557,"1":-0.12022129858456254,"2":0.10090789064003144,"3":-0.09246046449895277,"4":-0.02995720513537951,"5":0.24162143573409095,"6":0.062029875782946144,"7":0.0014166723215161584,"8":-0.15457350330159655,"9":-0.036496054353311276,"10":0.06229172175952133,"11":-0.07914675831377345,"12":-0.13375748159401554,"13":-0.10449463859842004,"14":0.08524913272085988,"15":-0.3744395304975086,"16":0.15178486413701014,"17":0.21133482274110194,"18":0.35265225825266566,"19":0.05886083335361581,"20":-0.39782438547665405,"21":-0.19188355876562613,"22":-0.10139121560418399,"23":-0.11217508574563836,"24":0.02210444923483961,"25":0.061211731692215235,"26":-0.5672704401767212,"27":0.04907476069947008,"28":-0.058748866422069265,"29":-0.13595731644831147}},{"sx":1,"sy":1,"depth":30,"w":{"0":0.007257714350568369,"1":-0.02395613547831236,"2":-0.1055390264867817,"3":-0.2270275953997497,"4":-0.06243242675365548,"5":-0.2034200652058631,"6":-0.4101742684017567,"7":0.14873169943547423,"8":0.029865180396780894,"9":0.009519754725135403,"10":-0.05721214195354034,"11":-0.4352554331961471,"12":0.29551188099914183,"13":-0.051809603663835,"14":-0.061207916934658546,"15":0.1353254361930945,"16":-0.3621899896272761,"17":0.038934721811478765,"18":0.0729521882968388,"19":-0.1869433044577501,"20":-0.4347434255620286,"21":-0.2486518276613496,"22":-0.41036715239949595,"23":-0.1806628507953449,"24":-0.11499825608622127,"25":0.057871253898394225,"26":0.009915216735200487,"27":-0.22588298000020013,"28":-0.32135655658962425,"29":0.03324710054134524}},{"sx":1,"sy":1,"depth":30,"w":{"0":-0.3980096917134307,"1":-0.01693618124263653,"2":-0.04941407035600449,"3":0.04259794444990125,"4":-0.16080048641880923,"5":0.1207925275031694,"6":0.01737378537057,"7":-0.030150940745484918,"8":0.12326315502670492,"9":0.05495581587117833,"10":0.0787908684110511,"11":0.18111225539964262,"12":0.021148517142826118,"13":-0.2776507059139401,"14":-0.31828702140667253,"15":0.025737971709578047,"16":0.11056444290371602,"17":0.23042541261760477,"18":0.18292523122486035,"19":-0.2319195105610748,"20":-0.05637852283235186,"21":-0.21488013724161753,"22":-0.017265773917703543,"23":0.21529772092529897,"24":-0.0997383684103459,"25":0.07564426063723304,"26":0.0738944148433501,"27":0.05817973022516925,"28":-0.04742765745784076,"29":-0.042523916705540815}},{"sx":1,"sy":1,"depth":30,"w":{"0":0.14187110780970816,"1":0.1901956534755432,"2":0.07701812501649065,"3":-0.16764281771498898,"4":0.11828356431643282,"5":-0.12342136780852997,"6":0.03214226012540563,"7":-0.069817544933777,"8":0.04592840042588169,"9":-0.2907655897571362,"10":0.09394556662353333,"11":0.05965504979265006,"12":-0.05216029745826294,"13":-0.2244250785849495,"14":0.16799844061726424,"15":0.2575876862025428,"16":-0.07679191683964075,"17":0.16347268273611767,"18":-0.13432166633625095,"19":0.05437593267758109,"20":-0.00544510241984033,"21":-0.039013513065050055,"22":0.11015464730672385,"23":-0.03815520859508457,"24":-0.07975726820839939,"25":-0.1374161074698761,"26":0.25961814916300974,"27":-0.037892556250765014,"28":0.4111001504530043,"29":-0.15054545295872518}},{"sx":1,"sy":1,"depth":30,"w":{"0":0.08163656807226198,"1":0.2179848884327617,"2":-0.15334726606917146,"3":0.19325155326224072,"4":0.14564817966789875,"5":-0.09418969409928411,"6":0.0077239994270417575,"7":-0.17783489962864182,"8":-0.2072221034314419,"9":0.006921772013010733,"10":0.12645209431890952,"11":0.07760498965880822,"12":-0.2798889164943767,"13":-0.3582954291958108,"14":0.1587050234497564,"15":0.11695643083952229,"16":0.0984017936633727,"17":-0.013684314183692961,"18":0.12856496929401598,"19":-0.08201076998194436,"20":0.28115508991558635,"21":0.13881693965214947,"22":0.3051608630769598,"23":0.22014407185911875,"24":0.08962688329019793,"25":-0.006755083949721524,"26":0.0422708783157436,"27":-0.29807082229991033,"28":-0.3138600268160366,"29":-0.36894242432127844}},{"sx":1,"sy":1,"depth":30,"w":{"0":-0.18089999809718693,"1":0.2837467586504412,"2":0.06062001414917307,"3":0.0073352383221700936,"4":-0.12447699290611126,"5":0.2844916272745362,"6":-0.05567662770407919,"7":-0.19053405523021397,"8":-0.07154935653310131,"9":-0.37379824394084654,"10":0.2210824928631204,"11":0.08338716380253057,"12":0.22812505261835764,"13":-0.24416473773207376,"14":0.37410755704026066,"15":-0.11347576588872099,"16":-0.06540545935498036,"17":0.11560142808182976,"18":-0.3385864631657512,"19":0.013464681523567145,"20":0.10981146262096113,"21":-0.23911344141211008,"22":0.1529765527518677,"23":0.041990754507674685,"24":0.1885489140195333,"25":-0.2972198986231377,"26":-0.061080092566479186,"27":-0.0674588199070545,"28":0.035575896706363255,"29":-0.021846558640902253}}],"biases":{"sx":1,"sy":1,"depth":30,"w":{"0":0.08430279535363269,"1":0.12480629560164058,"2":0.1124706113886757,"3":0.09998403445295236,"4":0.12461711393077815,"5":0.14552819108654952,"6":0.08536569881989463,"7":0.11130472729236689,"8":0.13116173923736324,"9":0.09996947562548797,"10":0.10616590033045817,"11":0.10895840548128692,"12":0.10409403574120467,"13":0.081818782241262,"14":0.098284651510669,"15":0.10952465696304584,"16":0.07560730759330422,"17":0.1121406165818902,"18":0.1044887944763353,"19":0.07962638416975638,"20":0.12726533492930278,"21":0.10019379036862441,"22":0.11050246735468276,"23":0.10701135380738905,"24":0.08200406691303193,"25":0.10000502296901895,"26":0.09997061733546217,"27":0.07892721976955337,"28":0.09728345052101905,"29":0.09372630884665789}}},{"out_depth":30,"out_sx":1,"out_sy":1,"layer_type":"relu"},{"out_depth":2,"out_sx":1,"out_sy":1,"layer_type":"fc","num_inputs":30,"l1_decay_mul":0,"l2_decay_mul":1,"filters":[{"sx":1,"sy":1,"depth":30,"w":{"0":-0.20572030591701476,"1":-0.46916885183466994,"2":0.019581231579969747,"3":-0.18051677932853918,"4":0.4366122040719242,"5":0.39922618338309507,"6":-0.083103514974429,"7":0.2670347898056776,"8":-0.00289626533774666,"9":-0.03554524409433133,"10":0.5659335130424377,"11":-0.02480958883886046,"12":0.3043552809903045,"13":-0.5814574180180913,"14":-0.08428445258402287,"15":0.11986437393318726,"16":-0.21558581169474508,"17":0.5104738341628764,"18":0.12094323330054901,"19":0.03050274839816652,"20":0.4146877653878977,"21":0.1521946118043008,"22":0.30872778917488947,"23":-0.1252429043534819,"24":-0.10826749813123106,"25":0.13396491275619382,"26":-0.04601140351669211,"27":-0.16670047402234903,"28":-0.12303775797917686,"29":0.15334314399869625}},{"sx":1,"sy":1,"depth":30,"w":{"0":0.27413881219535124,"1":0.18404153094864867,"2":-0.08877425325372214,"3":0.10652480982620345,"4":0.3430731780795458,"5":0.2152425526715125,"6":-0.2862962852532671,"7":0.09418126942369283,"8":0.3133704767420891,"9":0.15073694822720687,"10":0.016121071406469397,"11":0.1730823996798607,"12":-0.25595300745532124,"13":-0.12359602928734431,"14":0.10220538575673317,"15":-0.14490582335198263,"16":-0.22095326018872283,"17":-0.29808471185836527,"18":-0.04181199456413488,"19":-0.05571039108154814,"20":-0.10587385585822356,"21":-0.12888117130333784,"22":0.029837271944569276,"23":0.23057866371055852,"24":-0.09394250070093772,"25":-0.04508616436484303,"26":0.03933181040717413,"27":0.08909884451717837,"28":0.07354941069574472,"29":-0.21446977156710026}}],"biases":{"sx":1,"sy":1,"depth":2,"w":{"0":0.0986162017241856,"1":0.07537331565089414}}},{"out_depth":2,"out_sx":1,"out_sy":1,"layer_type":"regression","num_inputs":2}]}