{"layers":[{"out_depth":8,"out_sx":1,"out_sy":1,"layer_type":"input"},{"out_depth":50,"out_sx":1,"out_sy":1,"layer_type":"fc","num_inputs":8,"l1_decay_mul":0,"l2_decay_mul":1,"filters":[{"sx":1,"sy":1,"depth":8,"w":{"0":0.061984209941401115,"1":-0.26681531637752876,"2":-0.2664136160379195,"3":-0.056961442846439704,"4":0.3500115657867894,"5":0.32675355753629415,"6":0.0070877054722964326,"7":-0.06329858258018145}},{"sx":1,"sy":1,"depth":8,"w":{"0":-0.24889666018641532,"1":-0.17199282687603284,"2":-0.22332535920019692,"3":-0.38204601124920107,"4":-0.3885653501927256,"5":0.043016207359817246,"6":-0.1659244494905976,"7":-0.012863638902241289}},{"sx":1,"sy":1,"depth":8,"w":{"0":0.26995055518434247,"1":-0.5222032615314277,"2":-0.1812446971829289,"3":0.4725893356173479,"4":-0.5980676980115515,"5":0.20430057050878697,"6":0.03626032788781441,"7":-0.2989441524691059}},{"sx":1,"sy":1,"depth":8,"w":{"0":0.24395730046450065,"1":-0.07769301330734264,"2":-0.3626916117911884,"3":0.04317512700756084,"4":0.024452257522858834,"5":0.09984352033247346,"6":0.1790885522433335,"7":-0.1389441528549801}},{"sx":1,"sy":1,"depth":8,"w":{"0":-0.1601682574741098,"1":0.3918555114469373,"2":0.47210359182538036,"3":0.1745050461885484,"4":0.18175889123621589,"5":-0.11654028679747279,"6":-0.5666675407316798,"7":-0.41098232048260835}},{"sx":1,"sy":1,"depth":8,"w":{"0":0.07847238880209531,"1":0.12727638903360783,"2":0.20278297396765493,"3":0.09087748300008326,"4":-0.014473100513733005,"5":-0.1483632683266906,"6":-0.8715690439648436,"7":0.032953450077156395}},{"sx":1,"sy":1,"depth":8,"w":{"0":0.4228641071536963,"1":-0.00041891106402535853,"2":-0.47928348877607035,"3":-0.38374017175626285,"4":0.31607352572023467,"5":0.10132044474320823,"6":-0.17250287463117914,"7":-0.29434482845553844}},{"sx":1,"sy":1,"depth":8,"w":{"0":-0.39053162139184755,"1":0.14894742339484487,"2":-0.3600629580578623,"3":-0.10184369027053258,"4":-0.11588976085389471,"5":0.03422297225717408,"6":0.45993332322234287,"7":-0.18362898838805333}},{"sx":1,"sy":1,"depth":8,"w":{"0":0.04245052086603665,"1":0.325460662742636,"2":0.04064980543687423,"3":-0.4665844359142017,"4":0.6372135553609873,"5":0.027784915815863356,"6":-0.2819631653005066,"7":0.08149499519373989}},{"sx":1,"sy":1,"depth":8,"w":{"0":0.3787599648250283,"1":-0.054835489641905495,"2":-0.1578986098953289,"3":0.08374219322800246,"4":-0.025503978117544224,"5":0.018053466861520522,"6":-0.005525075879323332,"7":0.08369481520744379}},{"sx":1,"sy":1,"depth":8,"w":{"0":0.028743696147009216,"1":0.31602169534064806,"2":0.16735774799335454,"3":0.11109707994405449,"4":0.5662208339289726,"5":0.026184207303164387,"6":0.8540027025850971,"7":0.5450295479918665}},{"sx":1,"sy":1,"depth":8,"w":{"0":0.20002296496311878,"1":0.02416749733878164,"2":0.142222065446695,"3":0.09863119556138146,"4":0.22115781887385436,"5":0.19197778387057313,"6":-0.4139785353947136,"7":0.16136997072099438}},{"sx":1,"sy":1,"depth":8,"w":{"0":0.3115770186819913,"1":0.02589236399596096,"2":-0.32882794124250275,"3":-0.33947943433805927,"4":-0.10711330680001771,"5":0.796690688686208,"6":0.07054606671263439,"7":-0.17130096201078426}},{"sx":1,"sy":1,"depth":8,"w":{"0":-0.07224349468438433,"1":0.590145768958043,"2":0.12683453429986236,"3":-0.38817382481496215,"4":0.12496958158717895,"5":0.05877141482961505,"6":-0.1029378684968256,"7":0.5507955069451129}},{"sx":1,"sy":1,"depth":8,"w":{"0":-0.08522338263205845,"1":-0.08642880591444128,"2":-0.00048656019454629187,"3":0.05729200205531031,"4":-0.03936784265613761,"5":0.026412928664103694,"6":-0.1184531021385436,"7":-0.18692009817458408}},{"sx":1,"sy":1,"depth":8,"w":{"0":0.22663293042800484,"1":0.4914860250096742,"2":-0.23363099006287233,"3":0.09189623833543509,"4":0.23568427591838947,"5":0.1693530727576763,"6":0.30230983368070763,"7":0.11507209122495272}},{"sx":1,"sy":1,"depth":8,"w":{"0":0.18120941928388043,"1":0.10919695533623691,"2":0.382319274843425,"3":0.05005789939964888,"4":-0.35594302048635074,"5":-0.14308362544686995,"6":-0.6052660749463902,"7":0.26075773923857853}},{"sx":1,"sy":1,"depth":8,"w":{"0":-0.22354721410273634,"1":-0.2526512794928132,"2":-0.21725309336144272,"3":-0.14828826333029396,"4":-0.22450994651640832,"5":-0.15078823874894773,"6":0.06154255421349817,"7":-0.08879778741955693}},{"sx":1,"sy":1,"depth":8,"w":{"0":0.3810884902944681,"1":0.5641788799598444,"2":-0.5695268226192499,"3":0.04556871903338511,"4":0.1188868709796233,"5":-0.6050120535522426,"6":0.11820457370749957,"7":0.15785068019175127}},{"sx":1,"sy":1,"depth":8,"w":{"0":0.27881987471468067,"1":0.6599470600641084,"2":-0.17764682008705843,"3":-0.44014741628117776,"4":-0.1863555950977557,"5":0.14760228144121498,"6":-0.1754429035729178,"7":-0.15859427219189223}},{"sx":1,"sy":1,"depth":8,"w":{"0":-0.601304656139926,"1":-0.1915336877204076,"2":0.2549511908419021,"3":-0.16529706680416603,"4":0.013948377567420919,"5":0.06688675679025011,"6":0.5117604823114041,"7":-0.09741491439854795}},{"sx":1,"sy":1,"depth":8,"w":{"0":-0.0400196081775457,"1":0.500830467929061,"2":-0.18555197113889804,"3":-0.21666251516426355,"4":-0.0818082078163766,"5":-0.5219659416662122,"6":-0.11696097790703656,"7":-0.41121612130576835}},{"sx":1,"sy":1,"depth":8,"w":{"0":0.28316658998235483,"1":-0.18233061737466785,"2":-0.026802156798444974,"3":-0.043223326812586976,"4":0.34031635726010984,"5":0.23387074063059893,"6":-0.37240646325832766,"7":-0.7113014868433123}},{"sx":1,"sy":1,"depth":8,"w":{"0":-0.05017645529637569,"1":-0.035466862837609345,"2":-0.2990728127299926,"3":-0.6166720273404391,"4":0.18468200698562107,"5":0.08013369596250047,"6":0.269185677637298,"7":-0.012143644236537613}},{"sx":1,"sy":1,"depth":8,"w":{"0":-0.2645908761441861,"1":0.12527420612267617,"2":0.2042093250429928,"3":0.08557588718459787,"4":-0.07923380824865303,"5":-0.004805105321517847,"6":-0.013220762761682393,"7":-0.5123699200129375}},{"sx":1,"sy":1,"depth":8,"w":{"0":0.04647547566227754,"1":0.07080872222996437,"2":-0.14813518588672706,"3":0.475705929267627,"4":-0.34791748990748256,"5":0.11781418626546587,"6":0.12203059513207046,"7":-0.1966972975512727}},{"sx":1,"sy":1,"depth":8,"w":{"0":0.14735266514157794,"1":-0.08084901267570226,"2":-0.5893221958104667,"3":0.5381033138629304,"4":-0.00042257958623971505,"5":-0.23629490473168874,"6":0.12417474286695644,"7":0.14983335505803544}},{"sx":1,"sy":1,"depth":8,"w":{"0":0.19002900432500988,"1":0.19102447243656226,"2":0.04856492365617992,"3":-0.10052802372452314,"4":-0.35772922078485847,"5":-0.18880061083692976,"6":-0.30641611897306237,"7":0.30973251733985485}},{"sx":1,"sy":1,"depth":8,"w":{"0":-0.12054280029446562,"1":0.23492663160690366,"2":0.10584986998278238,"3":0.16135742146821233,"4":-0.16567956987962706,"5":-0.5693408923063047,"6":0.11814151645028655,"7":0.18283726114042342}},{"sx":1,"sy":1,"depth":8,"w":{"0":0.00039336598121137356,"1":0.2276143654591091,"2":-0.08815633177742807,"3":-0.0347524821218333,"4":0.3325595857829992,"5":-0.21257425231377622,"6":-0.44850948612715985,"7":-0.016539205168876425}},{"sx":1,"sy":1,"depth":8,"w":{"0":-0.08722386529835957,"1":0.3801976290535592,"2":-0.22349520498932918,"3":0.30183531336088365,"4":-0.8747240971384361,"5":-0.11930152166838777,"6":-0.08280011685579289,"7":-0.023166111948278095}},{"sx":1,"sy":1,"depth":8,"w":{"0":-0.20443835746118158,"1":0.43258204291355706,"2":0.34040701217745095,"3":0.0673724285931211,"4":-0.1957111629338217,"5":0.1175539544627599,"6":-0.5437415903167148,"7":-0.013937903390874886}},{"sx":1,"sy":1,"depth":8,"w":{"0":-0.3203628885087992,"1":0.16102868857939814,"2":0.44883088502497526,"3":0.33876416534359954,"4":-0.20174541913800934,"5":0.09809856954312887,"6":-0.5752503336182305,"7":-0.2756664277764696}},{"sx":1,"sy":1,"depth":8,"w":{"0":0.2794304276733003,"1":-0.14698988979995598,"2":0.32207723698910595,"3":-0.0023733011167944343,"4":-0.11774397329100986,"5":-0.6543861948880851,"6":0.4835264647514146,"7":0.5382314747901965}},{"sx":1,"sy":1,"depth":8,"w":{"0":-0.38499202296641877,"1":0.14067515517141826,"2":-0.13664542966347892,"3":-0.9355528735655815,"4":0.2593709606891903,"5":0.16320711174970753,"6":0.011556221025882435,"7":0.0007548853930266351}},{"sx":1,"sy":1,"depth":8,"w":{"0":0.029615987808925902,"1":-0.3535278723239597,"2":-0.12568064758807002,"3":-0.5117104591776439,"4":0.29232425788645255,"5":0.6621363256347206,"6":-0.04620934094117765,"7":-0.45823196759145646}},{"sx":1,"sy":1,"depth":8,"w":{"0":0.08054175213580458,"1":-0.13669436413015562,"2":0.19624799716880428,"3":0.4864456212289867,"4":0.038846202753563666,"5":-0.010769518633649987,"6":0.028629132804766304,"7":-0.12437808132113667}},{"sx":1,"sy":1,"depth":8,"w":{"0":0.2987720038427521,"1":-0.308148134281384,"2":0.5169486836967008,"3":0.7097476239849297,"4":-0.331120602845936,"5":-0.600053803626777,"6":0.02468409967865936,"7":-0.1432122826494438}},{"sx":1,"sy":1,"depth":8,"w":{"0":-0.08790101759701367,"1":0.24414926640466705,"2":-0.11352074151389488,"3":0.22434877873466394,"4":0.41792999802198116,"5":-0.6470082909296164,"6":0.18168367979728464,"7":0.30446492065228614}},{"sx":1,"sy":1,"depth":8,"w":{"0":-0.014832633164492069,"1":-0.43054887682452603,"2":-0.09987932475254613,"3":0.3568369707688927,"4":-0.09875514826918752,"5":-0.3147080366679681,"6":-0.10342192753303091,"7":-0.01414817577034618}},{"sx":1,"sy":1,"depth":8,"w":{"0":0.3707760874833405,"1":0.10376829289630686,"2":0.5343177253257071,"3":-0.2855720616437971,"4":0.07147626330433367,"5":0.8622012716301966,"6":0.3790107244548655,"7":-0.5201176196350826}},{"sx":1,"sy":1,"depth":8,"w":{"0":-0.08183176846719507,"1":-0.14205796813869417,"2":-0.566867829773393,"3":-0.07652245603852725,"4":0.5028407333600642,"5":-0.46187347078187063,"6":0.06080195878495145,"7":0.11462655239404466}},{"sx":1,"sy":1,"depth":8,"w":{"0":-0.021530269101983576,"1":0.5750405310264509,"2":0.5174593849579651,"3":0.3467889950554659,"4":0.06298060866412125,"5":0.6197905541649898,"6":-0.2754217150595035,"7":0.436462214842993}},{"sx":1,"sy":1,"depth":8,"w":{"0":0.14848422228813457,"1":0.02472936224269349,"2":-0.25825853134021703,"3":-0.11068095270470661,"4":-0.07057143634322038,"5":0.27464211590571797,"6":-0.007283809608801195,"7":0.19405730829277779}},{"sx":1,"sy":1,"depth":8,"w":{"0":-0.034643012691744156,"1":0.030376676410789373,"2":-0.45984612017447457,"3":-0.05104738386202369,"4":-0.22216904179666963,"5":-0.45950984357119673,"6":0.1270317856546128,"7":0.3459718018205159}},{"sx":1,"sy":1,"depth":8,"w":{"0":-0.023778559505553642,"1":0.2205853567122341,"2":0.009196845748221575,"3":-0.15546695040371006,"4":0.1950014394409447,"5":0.4359480810025081,"6":0.36980096867087836,"7":0.12060314218749246}},{"sx":1,"sy":1,"depth":8,"w":{"0":0.38156321643708263,"1":0.19962673916886597,"2":-0.08860466369784739,"3":-0.2086277616529665,"4":-0.7795343812744245,"5":0.30747929690658843,"6":-0.5393609701271407,"7":0.14365169283513668}},{"sx":1,"sy":1,"depth":8,"w":{"0":-0.08701664137882333,"1":0.12239231391982401,"2":-0.159928129323753,"3":-0.4504614891402391,"4":0.26215032677845157,"5":0.43163316287279974,"6":-0.2581196681343442,"7":0.2119136086473423}},{"sx":1,"sy":1,"depth":8,"w":{"0":0.03810688412330152,"1":0.06950741494342105,"2":0.060175836107580635,"3":-0.5880996190070699,"4":-0.16254168180527415,"5":-0.6901498789883282,"6":0.26905019922416606,"7":0.32442193302518296}},{"sx":1,"sy":1,"depth":8,"w":{"0":0.06574216892210911,"1":0.03120065896132349,"2":-0.5355153428727417,"3":-0.40206385953352386,"4":0.13552589933797812,"5":-0.4507623704653364,"6":0.23324580018557817,"7":-0.09147188214753109}}],"biases":{"sx":1,"sy":1,"depth":50,"w":{"0":0.18110146126303045,"1":0.09798351455019508,"2":0.10594655672695874,"3":0.16811597879412885,"4":0.1372362925988197,"5":0.1667068186677481,"6":0.04800832633213932,"7":0.192615454746864,"8":0.04631951600996015,"9":0.1809467081278483,"10":0.3695734891735168,"11":0.003212549242721772,"12":0.02921079313176648,"13":0.38056550550584095,"14":0.3612061629975052,"15":0.1324974030519664,"16":0.23554527832711203,"17":0.09775047228524636,"18":0.4790046397988853,"19":0.014344936042574393,"20":0.26142086214944743,"21":0.060443668817453534,"22":0.10591000964868365,"23":0.08837448348823536,"24":0.13709112713630026,"25":0.23993157871337087,"26":0.04918990714179432,"27":0.17289632704302188,"28":0.14897961618633343,"29":0.21851751216804577,"30":0.027291583103825238,"31":0.14936494237786102,"32":0.2666301290089025,"33":0.03879863079239403,"34":0.1169401772306973,"35":0.059528178502807935,"36":0.07000345551416129,"37":0.3556643858205998,"38":0.33433669388485077,"39":0.27402646892782107,"40":0.46579296688305566,"41":0.07334796574347519,"42":-0.029947946565592336,"43":0.08561863905165894,"44":0.13022938739211468,"45":0.4065010426399754,"46":0.04905054719401945,"47":0.18678230136237692,"48":0.18480343538361518,"49":0.15229949725418496}}},{"out_depth":50,"out_sx":1,"out_sy":1,"layer_type":"relu"},{"out_depth":50,"out_sx":1,"out_sy":1,"layer_type":"fc","num_inputs":50,"l1_decay_mul":0,"l2_decay_mul":1,"filters":[{"sx":1,"sy":1,"depth":50,"w":{"0":0.2729869938922683,"1":-0.11048860846372846,"2":-0.11542148684425858,"3":-0.07273303709318323,"4":-0.00653977638871999,"5":0.23215991790759216,"6":0.11853200560942939,"7":-0.033997528446271685,"8":-0.05749547885347074,"9":-0.08239370644724614,"10":-0.0641748152246941,"11":-0.08210172566352897,"12":0.2040578148924507,"13":0.10115320440054157,"14":0.09614605287497806,"15":0.2029498534698998,"16":0.18413332305733066,"17":0.04866085799759097,"18":0.11297642246826117,"19":0.184854777161297,"20":-0.027415382249644918,"21":0.1467817837841912,"22":0.04886282386029047,"23":0.02012116483121848,"24":0.1366121909574802,"25":-0.1748572881983808,"26":-0.07453985395862399,"27":0.18043393093806728,"28":0.020383302177050193,"29":0.09448069462677068,"30":0.045120598376633285,"31":-0.05906303457519735,"32":0.09949747457549384,"33":-0.08936476506376786,"34":-0.015320175799135709,"35":-0.2018884356086937,"36":0.0025136440795205683,"37":-0.03185777630148312,"38":-0.08166782190026382,"39":0.009963734418670454,"40":-0.12143490188350566,"41":-0.05109296594949359,"42":-0.01401198313624317,"43":-0.1861156876384655,"44":-0.09626527127066374,"45":-0.016288331337802532,"46":-0.07988247737235898,"47":0.06770867515730035,"48":0.07169039210377141,"49":-0.07036255073250616}},{"sx":1,"sy":1,"depth":50,"w":{"0":0.13798435181938526,"1":0.04271331003375654,"2":-0.21063331420791756,"3":0.10337313478752322,"4":-0.07296181191348128,"5":0.09128523670481305,"6":0.10904101989002264,"7":0.12426470987208603,"8":0.04136410185107337,"9":-0.09220204967588819,"10":0.047831630735857944,"11":-0.022497481697803683,"12":-0.09113369880197233,"13":0.044779627458932075,"14":0.2186350593704609,"15":-0.007682638269658314,"16":0.06556778921200283,"17":0.13272164711633713,"18":0.1807754456589267,"19":-0.2185166007682087,"20":0.21985232616271483,"21":-0.07561826339689877,"22":0.032673725027269146,"23":-0.12316237529856573,"24":0.06406310449988045,"25":0.046196004209386486,"26":-0.16833977132244665,"27":0.09100056128773733,"28":0.03606536660391316,"29":0.060087450225230966,"30":0.04296662992383364,"31":0.05404876752392881,"32":-0.04683646386740414,"33":-0.19763239460105847,"34":0.05167004373117333,"35":-0.06149803021267634,"36":-0.19877531834401183,"37":-0.18158085471421723,"38":0.038350148184946566,"39":-0.12280158143814607,"40":0.16084038505206708,"41":-0.033104670772313334,"42":0.07238099762187436,"43":-0.07047727652057387,"44":-0.14288522790371197,"45":0.13356688520396423,"46":-0.14923857330308277,"47":-0.02643402238886841,"48":-0.14983991733689617,"49":-0.04541183877277459}},{"sx":1,"sy":1,"depth":50,"w":{"0":0.13006834191028455,"1":0.025180901023145855,"2":-0.02667696480699557,"3":-0.08145302322706738,"4":-0.07679989502679956,"5":0.11395781428206093,"6":-0.08258507714375071,"7":0.12820390667071838,"8":0.07810861247152942,"9":0.05657713040675003,"10":-0.16413224672968088,"11":0.18850215981927304,"12":-0.04044090001459877,"13":0.13204244162960202,"14":-0.04492159702426399,"15":-0.013372807831011746,"16":-0.2883566844723511,"17":-0.05718894841482634,"18":-0.20960130779130032,"19":-0.2029242853431775,"20":-0.31136092415554156,"21":-0.15262944847020848,"22":-0.003424902435641606,"23":-0.18904983857204788,"24":-0.011208137473168952,"25":0.06718889199144612,"26":0.06838832454526396,"27":0.15291799353101884,"28":0.23610031020617622,"29":0.10110545282818528,"30":-0.08960618650048463,"31":-0.06806077172708035,"32":-0.01269832928598699,"33":0.19138630296350062,"34":0.1176932390685761,"35":0.034322297314758915,"36":0.03771082247439149,"37":-0.026486385076679584,"38":0.13296008355635205,"39":-0.2004884824705002,"40":-0.0037370441796953464,"41":0.13933623456435582,"42":-0.07380005627755536,"43":-0.011674502118315059,"44":0.1485736529290505,"45":-0.16737550829017347,"46":0.06169247098885263,"47":-0.011235916158411244,"48":0.027019354137399493,"49":0.08553165012419527}},{"sx":1,"sy":1,"depth":50,"w":{"0":-0.09364973972530467,"1":-0.027198674783587607,"2":-0.14994749624181844,"3":0.22529123424550013,"4":-0.03439120060606934,"5":0.0413292518554189,"6":-0.23810025577913804,"7":-0.22569144703475638,"8":0.13277021592831942,"9":-0.024373207832158125,"10":0.011254728542499207,"11":0.10715075718295657,"12":0.17909045920472363,"13":-0.013696329543330424,"14":0.09395754670869369,"15":-0.18589357011083482,"16":-0.12464667693733997,"17":-0.01180704877078854,"18":0.25629696822762543,"19":0.017016471322033783,"20":0.2924687597737394,"21":0.1338641793694247,"22":0.21913786636271976,"23":0.05702492785764647,"24":0.030487254691085448,"25":0.21642834492926213,"26":-0.016576632282220994,"27":-0.10610652972515727,"28":0.07909254600608467,"29":0.10883414622873734,"30":0.00638538559294096,"31":0.10014282122898363,"32":0.13180123287054177,"33":-0.16631001593362435,"34":0.15539534084058304,"35":0.024941622316392475,"36":-0.23867236604848804,"37":0.005357623757712464,"38":0.04735175729420517,"39":0.0414737024651053,"40":0.07962854925951958,"41":0.051725357703549975,"42":-0.15649965451670275,"43":-0.017863439124787144,"44":-0.05599021433250841,"45":-0.2999677393185961,"46":-0.08813695033741556,"47":0.09356531483031996,"48":0.04134171802591064,"49":-0.07142895324628422}},{"sx":1,"sy":1,"depth":50,"w":{"0":-0.025618515837588497,"1":-0.15321190257063494,"2":-0.14328409963366076,"3":0.1774827831069327,"4":-0.1762091113011066,"5":-0.010603694024034532,"6":0.01986135188595206,"7":-0.013108270554591671,"8":-0.21856939831106567,"9":-0.11542204178911959,"10":-0.2166671399594364,"11":-0.08852295676436264,"12":-0.05307090821337231,"13":-0.013912072372791948,"14":0.13135970521912696,"15":-0.20945040481122165,"16":-0.14848005385023655,"17":0.05716628206842595,"18":-0.12164161470740315,"19":-0.04950167623681468,"20":0.06627261028594747,"21":-0.021676722325735042,"22":-0.08967208659306627,"23":-0.14379816040456547,"24":-0.1346348331706163,"25":-0.16613114792416703,"26":-0.044285380269446506,"27":-0.21359854839497178,"28":0.02026547459234795,"29":-0.2213888714181641,"30":0.24469847397933334,"31":0.20139643809895022,"32":0.04822558906218172,"33":-0.21837611974728635,"34":0.22258601997860605,"35":0.057051562568952406,"36":-0.13195929708675452,"37":0.1480994383534951,"38":0.11875564939698247,"39":0.05649150484580371,"40":0.053727781571894326,"41":-0.17787591858122648,"42":0.010158153204766736,"43":0.01962131830639105,"44":0.004161265729255838,"45":0.1890625988737731,"46":-0.12414514994642516,"47":0.06671350158581907,"48":0.09473449885582881,"49":-0.2407255375125014}},{"sx":1,"sy":1,"depth":50,"w":{"0":0.14406436336089729,"1":-0.026964152889032433,"2":0.04395822937540252,"3":0.0949081999590439,"4":-0.022460713864816958,"5":0.10750671660641924,"6":-0.07956009042287865,"7":-0.001020178815547139,"8":-0.24722400153135107,"9":-0.08522569065749011,"10":0.07276200158175718,"11":-0.2519166691274975,"12":0.007707856255147808,"13":0.006626128970579007,"14":0.23201590750137022,"15":0.14812440424805257,"16":-0.22129359752088068,"17":-0.1182989604510272,"18":0.20613757469317326,"19":-0.06582990040885078,"20":-0.019915594886680935,"21":-0.1022880782493195,"22":-0.2122519797428598,"23":0.19675891901018713,"24":0.16092689734997856,"25":-0.07965496672690478,"26":0.015295098163061375,"27":-0.07477294848750685,"28":0.049131453143223515,"29":-0.06965142066093943,"30":0.03730563505844234,"31":-0.006326583347503618,"32":0.268839427034046,"33":0.13494535641333918,"34":0.043743047904150324,"35":0.020816648129317043,"36":0.10380275243884515,"37":0.1302060335354356,"38":-0.07662769244205182,"39":0.29508916384566447,"40":-0.02497867983599598,"41":0.20354569074110146,"42":0.02803309573952509,"43":0.12297209907492862,"44":-0.029420772331089466,"45":0.25631301415983965,"46":-0.021827923075764994,"47":-0.14638423839622403,"48":0.15084584479762145,"49":-0.00006912682938943971}},{"sx":1,"sy":1,"depth":50,"w":{"0":-0.06969007410093424,"1":0.059986214589773004,"2":-0.058922837723442104,"3":-0.2030236734156842,"4":0.11794403310433546,"5":-0.18878507895618338,"6":0.002871445547285891,"7":0.1002862290642316,"8":-0.14244020779369182,"9":-0.0862506775389629,"10":0.22918154873055185,"11":-0.0007923602871407635,"12":0.02188175033801506,"13":-0.1150830884585357,"14":-0.1289839260131419,"15":-0.14713502140973791,"16":0.04202060445116472,"17":0.0037408334916215727,"18":-0.21990369705035526,"19":-0.07877610054384021,"20":0.06407499881136121,"21":0.190373469447532,"22":0.16887466514510022,"23":-0.15089654556236817,"24":0.06361017041245164,"25":-0.13747714564495012,"26":-0.14298981857405632,"27":-0.03530082940541495,"28":-0.02249292427785819,"29":0.10811055670492961,"30":-0.09941453388487012,"31":0.0862146659154041,"32":-0.3141169445513161,"33":-0.1774574151218727,"34":-0.27994085823275927,"35":-0.18284168693200212,"36":-0.19437995491939322,"37":0.04745546136084582,"38":-0.11245492362945388,"39":0.22751180640322838,"40":0.0730528596738004,"41":0.17596679384584452,"42":-0.045310829219080945,"43":0.16709434629152067,"44":-0.01937251309794394,"45":0.2740373255960986,"46":0.25357187632840295,"47":-0.06113153456796843,"48":0.053881131151354504,"49":0.05004944597269636}},{"sx":1,"sy":1,"depth":50,"w":{"0":0.07934586536881759,"1":-0.026142114583463966,"2":0.04787077863040776,"3":0.02017311261035074,"4":-0.15982659811254574,"5":0.22539059458015523,"6":0.05594787730887522,"7":0.08539292081014846,"8":-0.10859729445674801,"9":-0.09584468817527653,"10":0.1766014370926198,"11":0.011184768490551404,"12":-0.11719303240296466,"13":0.05779665512349046,"14":0.17262928427806182,"15":-0.3245281334690901,"16":-0.13169456454926046,"17":-0.019703616911037707,"18":0.1431688469434199,"19":-0.26638194804289544,"20":-0.1774632467771648,"21":-0.05080789300255903,"22":0.13660422063373692,"23":-0.10334434825854202,"24":0.16716725334515933,"25":-0.09164901008114397,"26":-0.17627331947056052,"27":-0.13329048823727127,"28":0.12408563560148811,"29":0.05004905060152283,"30":0.1195650832534979,"31":0.06105893527647707,"32":0.25171946321316446,"33":0.002195150248801592,"34":-0.17171214114216102,"35":0.06765425483636835,"36":0.027629783035165237,"37":-0.03502795931218044,"38":-0.14226759783064843,"39":0.014062171253942227,"40":0.28508099219520416,"41":-0.12859192870042868,"42":-0.08995149896948122,"43":0.2579840142532677,"44":-0.0960798996756722,"45":0.11839229549873526,"46":0.04067798680686985,"47":0.03491481952988846,"48":-0.125478890706231,"49":0.0222732495157391}},{"sx":1,"sy":1,"depth":50,"w":{"0":-0.17918850386443694,"1":-0.018666521022275107,"2":0.08911699088941676,"3":-0.1739058724524244,"4":-0.05485207206765759,"5":0.06513724318919632,"6":-0.03714845123094028,"7":-0.07610303438591311,"8":0.027737716731155448,"9":0.07023358074571383,"10":-0.0230621339108008,"11":0.09663096946788731,"12":0.13504083136328124,"13":-0.19713627036141604,"14":0.046519486842573926,"15":-0.041192634126209104,"16":-0.0008952254191267151,"17":0.03261286886319731,"18":0.06398961486825777,"19":-0.07774626587249456,"20":-0.3459757927493298,"21":0.10790560213019558,"22":-0.21147114656139107,"23":-0.1628589419665917,"24":-0.039138223282464746,"25":0.007747287690761896,"26":-0.23336579126983323,"27":0.04590977675274956,"28":-0.059896750405574815,"29":-0.055316957794121165,"30":0.24892217125600588,"31":0.16161571533505348,"32":0.024010389141424573,"33":-0.019459021603303574,"34":0.12749232615927472,"35":0.029061924689179338,"36":0.04794898770626098,"37":-0.1352912540688804,"38":0.17819261589202237,"39":0.07639148344250238,"40":-0.02736716460423546,"41":-0.01706187597333321,"42":-0.020797850229516114,"43":-0.06408218469178244,"44":-0.17408962867120212,"45":-0.05120878812723675,"46":0.19301213845975712,"47":-0.042965859738245606,"48":0.028513274950128818,"49":-0.07584470586847886}},{"sx":1,"sy":1,"depth":50,"w":{"0":-0.026427478022501224,"1":-0.4004141635782835,"2":-0.08196263469237881,"3":0.3024736690723795,"4":-0.012838247378002068,"5":-0.33417796313071507,"6":-0.34905175682005957,"7":-0.06095998941708849,"8":0.030746581236640907,"9":0.18185941199991673,"10":0.19288613521632209,"11":-0.18167130094128325,"12":-0.16028664621758662,"13":0.04030663304856802,"14":-0.04376471673875897,"15":-0.03660731643904566,"16":0.10331708444077241,"17":0.07031502109414695,"18":0.02056753322504935,"19":0.02396533569206473,"20":0.10938218174413832,"21":0.05659218410710509,"22":-0.2167509548971671,"23":-0.05210006237872446,"24":-0.13954047013575968,"25":0.06461730038562374,"26":0.04790459810077717,"27":0.2751623218711291,"28":-0.09841298542193552,"29":0.13929520367953765,"30":-0.09895211682161607,"31":0.11433926497606056,"32":-0.1258113173838646,"33":-0.11908933320829233,"34":-0.11600866029237475,"35":0.023886148356813873,"36":0.018632596655055834,"37":0.06867122256260318,"38":-0.0906778216391411,"39":-0.415573211948474,"40":-0.0020656765006113963,"41":0.0165297819163374,"42":-0.08800580198028518,"43":-0.20569645139785014,"44":-0.11179038611994607,"45":0.009358696264266537,"46":0.02115688585161791,"47":0.015988231138507693,"48":-0.08347416121049898,"49":-0.0911184420209444}},{"sx":1,"sy":1,"depth":50,"w":{"0":0.08759865439164419,"1":0.039276103319704374,"2":0.09036257093701816,"3":-0.1331736342478882,"4":-0.007701806208423911,"5":-0.005072418323353537,"6":0.32898380022515306,"7":0.07157941135835802,"8":-0.08865633070168229,"9":-0.09664129774349178,"10":0.16574501825513085,"11":-0.1498631023767635,"12":-0.07547918046597003,"13":0.061740440933381116,"14":-0.03849931450351821,"15":0.13966650138283884,"16":-0.06447883347770858,"17":-0.04564754396677666,"18":-0.2662821355493357,"19":-0.1897848665355727,"20":-0.14655504693227833,"21":0.13425674809713883,"22":-0.0250405687062578,"23":0.06766464483428264,"24":0.10424699545500728,"25":-0.10823424706548924,"26":0.08710390308514647,"27":-0.004472563692238998,"28":0.04061373109138658,"29":0.14301658279856047,"30":-0.05439611862436582,"31":-0.20743455096724617,"32":-0.036372637956967976,"33":-0.19956631728765395,"34":-0.04105978331773999,"35":0.04593175778232819,"36":0.18237672465933485,"37":0.03685649766386076,"38":0.0967074402683272,"39":-0.019657325600792707,"40":0.0346355260805951,"41":-0.17162915200830356,"42":0.10406783417897177,"43":0.06688851598392667,"44":-0.11358964303212783,"45":-0.16688168908825746,"46":0.003968660904773124,"47":-0.17953942976160056,"48":-0.03586834540793202,"49":0.08486666653116484}},{"sx":1,"sy":1,"depth":50,"w":{"0":0.06474309838998472,"1":-0.0009693538183936205,"2":-0.15380828905096017,"3":-0.040571388822744255,"4":-0.10363721924547478,"5":0.2710662890387866,"6":-0.06816992725263528,"7":0.2665126627704639,"8":-0.08075603305451104,"9":0.08697162313910567,"10":0.015696605557387885,"11":0.11334928623862589,"12":-0.0977857313964126,"13":0.16033584319826943,"14":0.028347550055689886,"15":0.1616517612089088,"16":0.19027029640607515,"17":-0.04304459504317978,"18":0.3760022688853927,"19":-0.20675224280678248,"20":0.058225305557349206,"21":-0.22381639082395907,"22":-0.19289076644089076,"23":-0.056150772116724076,"24":-0.04543978589345444,"25":0.10878180968731618,"26":-0.11377659240907509,"27":-0.20481664270192798,"28":0.03060526937626427,"29":0.04367546684249831,"30":0.07170648417724337,"31":-0.01914853821658338,"32":-0.03532343225039239,"33":0.09258763962408682,"34":-0.05745172672629224,"35":-0.025264513061452946,"36":0.014973716022438478,"37":0.009198210770338689,"38":0.12580197218231007,"39":-0.3716040012601034,"40":-0.14369765519866898,"41":-0.05694579426056566,"42":-0.17166044844801498,"43":0.12587489444812702,"44":-0.04940401466950538,"45":0.06552544660885608,"46":0.325529184065935,"47":-0.10904424136372906,"48":0.4406609849543331,"49":0.3193159312275397}},{"sx":1,"sy":1,"depth":50,"w":{"0":0.23959582774661894,"1":-0.13799665912922482,"2":-0.24867901133525303,"3":-0.00830014757053725,"4":0.02964139200346446,"5":0.07095237627567116,"6":-0.15495710930016993,"7":-0.15488301509015068,"8":-0.1266840922322564,"9":-0.04620978028048011,"10":-0.15555807570630356,"11":0.09800138384792237,"12":-0.02610746462457734,"13":0.16825837468454732,"14":0.12921252915562423,"15":0.13608246611788513,"16":-0.07296659499924119,"17":-0.0498206548741226,"18":0.18278762158058612,"19":0.053813636763137676,"20":-0.1135869448139457,"21":-0.07192544934871377,"22":0.09462456061075457,"23":-0.00867239535460074,"24":-0.015924751891892464,"25":-0.12923176979563036,"26":-0.08573578405506668,"27":-0.06064507023781826,"28":0.010584781614823185,"29":0.15687092964767638,"30":-0.06827365320877177,"31":0.045926969047079734,"32":-0.05538016648236229,"33":0.10005111304177694,"34":-0.017700147750689326,"35":-0.06670406893257552,"36":-0.05679573889885944,"37":0.07869263082185636,"38":0.2521717793938892,"39":-0.18316310794513682,"40":0.06564852941835586,"41":-0.23435990123130762,"42":-0.2378292221569753,"43":0.02480348166426782,"44":-0.07203126396503366,"45":-0.004200530101828604,"46":-0.1940603729980158,"47":0.15327989312795676,"48":0.25191588099431944,"49":0.2502286362935204}},{"sx":1,"sy":1,"depth":50,"w":{"0":-0.06942931698552797,"1":0.03192735985559788,"2":0.1545972688241712,"3":-0.11094847395971753,"4":0.06544099580275474,"5":0.013090792789226997,"6":-0.058821549290374954,"7":-0.026472553278750713,"8":0.0952604931886305,"9":-0.002164793491212804,"10":-0.09112731945173422,"11":0.046555625554176285,"12":-0.05262293152956809,"13":-0.16131025495228626,"14":-0.14161881333929352,"15":-0.016032025954970337,"16":0.0008062984927733525,"17":0.046615151292212824,"18":-0.11646117274716027,"19":-0.07517931220530585,"20":-0.02420442876420261,"21":-0.18696610295364416,"22":-0.10368566502748201,"23":0.04708880612309103,"24":0.03018415237775581,"25":0.12047073198901923,"26":0.08481681041085298,"27":-0.12515815901706506,"28":-0.0041074005435240025,"29":-0.2587966193531151,"30":0.22028482471479638,"31":-0.06601265546620726,"32":0.0039869916862602045,"33":-0.05429903449808956,"34":0.14018001535413047,"35":-0.052569069143264556,"36":0.028216754484132023,"37":0.0988483075686124,"38":-0.1846164877634219,"39":0.1952414898296538,"40":0.16052103943302962,"41":0.14275751532854206,"42":-0.04624688664335173,"43":0.15782938888905135,"44":0.10434106629382561,"45":0.07685708254913204,"46":0.022553210635441488,"47":0.22104491571025325,"48":-0.06882521215097878,"49":0.17047596414707464}},{"sx":1,"sy":1,"depth":50,"w":{"0":-0.19036974513100868,"1":-0.08542678599379613,"2":-0.1367401257818996,"3":-0.13665964788485432,"4":-0.03566169316383998,"5":0.045066911991829495,"6":0.08239650470243162,"7":-0.09902681074590294,"8":0.07587507529567067,"9":0.04674737807426444,"10":0.018246706866974816,"11":0.0341464957640672,"12":0.11856394588930821,"13":0.13894544972581443,"14":0.06990507031403144,"15":0.0491050418232154,"16":0.15449338905933016,"17":0.13831851943516899,"18":0.07011568504113531,"19":0.0495805095367137,"20":-0.03851987264091457,"21":0.20051934229109145,"22":0.1566017551345369,"23":-0.024620093168241097,"24":0.0519020372693848,"25":-0.12463938103482283,"26":0.05236898021644897,"27":-0.014515421652196618,"28":0.03302910190251108,"29":-0.12861819535216396,"30":-0.03502699087258346,"31":-0.16417487817752668,"32":-0.05830983432889576,"33":-0.09001642897940966,"34":0.17118663041005905,"35":-0.10996511146873607,"36":0.012935218490552904,"37":0.11022250016037834,"38":-0.06632905551874757,"39":0.0735152112029569,"40":-0.13002728263977448,"41":0.07374374761285586,"42":-0.06085717686415257,"43":0.33416883100283734,"44":0.08846154201177153,"45":-0.07730379430911577,"46":0.0669988346147711,"47":-0.0677147914265789,"48":-0.05698665713685123,"49":0.020340829368365104}},{"sx":1,"sy":1,"depth":50,"w":{"0":-0.12154029975282289,"1":0.18121394531292176,"2":0.04993060450146732,"3":-0.02954239249502603,"4":-0.16517374144169134,"5":-0.25884655428640196,"6":-0.04904750700194939,"7":0.031043192653458992,"8":0.014742129112789605,"9":-0.19331951679476936,"10":-0.11358639010971319,"11":-0.035700659253661,"12":-0.10793142160583134,"13":-0.018968284523678984,"14":0.024277327425460026,"15":-0.09693993602456617,"16":-0.12509016142396745,"17":-0.09104368271693825,"18":-0.1562948236024438,"19":0.0371863833620415,"20":0.15405116146185488,"21":0.17885249447594712,"22":0.06510357756474237,"23":-0.20610720454573292,"24":-0.15651175094805328,"25":0.3698738993082074,"26":0.03493233297930112,"27":0.06795950948029124,"28":0.32371086108579644,"29":0.26164792918041185,"30":0.22207016331852655,"31":-0.0681425108062325,"32":0.01425488870010451,"33":0.15515878147726805,"34":0.08187387288225775,"35":-0.03419909309814441,"36":0.08111491568907384,"37":0.07713778280354011,"38":-0.07756614674526528,"39":0.21955980275023587,"40":-0.10773151436559576,"41":0.06723834151314856,"42":0.026969886005691453,"43":0.06347785205799851,"44":-0.016186852828749265,"45":-0.05059258414775064,"46":-0.1851439968891064,"47":-0.08222244067581681,"48":-0.027227446919007883,"49":0.07809659620101611}},{"sx":1,"sy":1,"depth":50,"w":{"0":-0.15756309955240322,"1":-0.18079844810091408,"2":-0.05102915971054459,"3":-0.02160802407015464,"4":-0.11943667474654167,"5":0.1515247714987751,"6":-0.06734251420283253,"7":0.19792930542688963,"8":0.28366253198739527,"9":-0.03268117244952779,"10":-0.056278163881187504,"11":0.0833004072996206,"12":-0.05318619193930359,"13":-0.028737295296150992,"14":-0.0641653455387279,"15":-0.1014792014194713,"16":-0.08938134328155944,"17":-0.17870957996480144,"18":-0.039549971507343094,"19":-0.30499279855598577,"20":0.06183296158992286,"21":-0.1475722422799832,"22":0.13307978236313592,"23":0.049953692778507405,"24":-0.07065164526496172,"25":0.1413157639453814,"26":-0.17086451829431284,"27":0.010163759018594563,"28":-0.06506517721096867,"29":0.13776804526169115,"30":0.200805633078325,"31":-0.10802582444565995,"32":-0.03562478499707089,"33":-0.12199917497687615,"34":0.04370412756916568,"35":-0.007821123633869964,"36":-0.19551061905547115,"37":0.11156334750554751,"38":-0.1271998993781692,"39":-0.10047548599056005,"40":0.02692509581452942,"41":0.255093797052873,"42":-0.0014354770696956886,"43":-0.00960047633234288,"44":0.09499532698883122,"45":-0.2425402902561681,"46":0.04504774220722267,"47":-0.10653859073655016,"48":0.004796999046384354,"49":-0.19038385946022754}},{"sx":1,"sy":1,"depth":50,"w":{"0":-0.01686037463797533,"1":-0.036424187734073715,"2":-0.06747995742390468,"3":-0.07130080563329533,"4":-0.05718130536204733,"5":0.1025309771597219,"6":-0.04743505288619843,"7":0.06397785415200094,"8":0.044418161643048244,"9":-0.3322604232464271,"10":-0.11541233947431644,"11":-0.10255083609422845,"12":0.06835387900969694,"13":0.07864196932448483,"14":0.14221596406650275,"15":0.12238132823831963,"16":0.018715969903371387,"17":0.11538666028281533,"18":-0.11568930572381017,"19":-0.13789361593037955,"20":0.28441223242013564,"21":-0.07723094527281928,"22":0.1250397145733576,"23":0.07572952582331141,"24":0.1368584394464411,"25":-0.10400951644679027,"26":0.15217798338097663,"27":-0.18915437598152596,"28":-0.08408584791984969,"29":-0.0789449979005127,"30":0.052078913672372364,"31":-0.013588073993085113,"32":-0.12749060397222076,"33":-0.0312893880610979,"34":-0.19545532539849167,"35":-0.16115280911426297,"36":0.0542175808956007,"37":-0.27477738680725894,"38":-0.2045592793170749,"39":0.14124494326758605,"40":0.29979868117585257,"41":-0.006502187018065455,"42":0.4035145391108434,"43":0.12537884075533517,"44":-0.04052361961623024,"45":-0.01598315441640159,"46":0.16237485320348843,"47":0.14534168489984303,"48":-0.046726682512972136,"49":-0.0048633376658719155}},{"sx":1,"sy":1,"depth":50,"w":{"0":-0.16899214354196931,"1":-0.014889993578704056,"2":-0.2331219938206663,"3":0.11323484215954131,"4":0.16521636603323367,"5":0.04913672565688535,"6":-0.18242927948130727,"7":0.15003606370849146,"8":0.12906239868313799,"9":-0.08170490732703792,"10":-0.10341901493951074,"11":0.08396588502415148,"12":0.13616305466618817,"13":0.06622909550799132,"14":0.07469167900989235,"15":0.009718656998905714,"16":0.014445823404017675,"17":-0.0003884954202915489,"18":0.3146190619343605,"19":0.17276072794420086,"20":0.004610069189858797,"21":-0.043156000256117384,"22":-0.020433624528367656,"23":0.07998877233203999,"24":-0.07963205706415051,"25":-0.15730228843952745,"26":-0.24734316548099006,"27":0.057338574042494025,"28":-0.2764432921871635,"29":-0.018056455548629734,"30":-0.021458624206903257,"31":-0.07498943821852048,"32":0.09760769574545343,"33":-0.11780224836098041,"34":-0.03514591474580877,"35":-0.12298646747987853,"36":-0.14073507611961186,"37":0.07356128164641906,"38":0.1311013419811055,"39":0.05904960358652795,"40":-0.04735587915191316,"41":0.034644265933638015,"42":0.13022181364274804,"43":0.11685121778377908,"44":-0.016302073803769714,"45":0.15771862568681633,"46":0.048227049621312586,"47":-0.08210012193849099,"48":0.12610580311177563,"49":0.053189728092780664}},{"sx":1,"sy":1,"depth":50,"w":{"0":-0.08945772514759692,"1":0.162090026801016,"2":-0.174556095533138,"3":-0.03968514823564066,"4":-0.08695222796082498,"5":0.020205200815709007,"6":-0.12764697195372487,"7":-0.08079951105659715,"8":-0.2317929347606697,"9":0.10916589521409313,"10":-0.217390502144018,"11":0.0009428376569736085,"12":0.18000646270701015,"13":-0.12833825764706688,"14":-0.17235297381850212,"15":-0.22032865991901476,"16":-0.14545860077614764,"17":0.09864161036805799,"18":0.2199409140698835,"19":-0.10158232663834689,"20":0.029633195524477098,"21":0.004205255684418099,"22":-0.02661361249629211,"23":0.00422686509696983,"24":-0.04047677480586241,"25":-0.01796956150624991,"26":0.023204926099747253,"27":0.13944102207753695,"28":-0.10943301113018027,"29":0.14076535467816426,"30":0.2494198142433549,"31":-0.2585537176025633,"32":0.06485136219865653,"33":0.04138337896966483,"34":-0.027997717192490088,"35":0.0388771396053388,"36":0.19551698892116456,"37":-0.05267482247553024,"38":-0.2375414592409057,"39":0.2818922393992527,"40":0.03874044975752173,"41":-0.08855162540044514,"42":-0.08525843373655638,"43":-0.14678122686264186,"44":0.09554989376593101,"45":0.028697338172512233,"46":-0.14330019014478634,"47":0.023722883573217356,"48":0.2416441842374145,"49":0.07545131950295884}},{"sx":1,"sy":1,"depth":50,"w":{"0":0.000306397437909043,"1":-0.2315696475600151,"2":0.05279567883682811,"3":0.04723533511070795,"4":0.05905072757307649,"5":-0.11788336577621185,"6":-0.07647227819885505,"7":0.0582952289438469,"8":-0.15916136410225262,"9":-0.03658712362759558,"10":0.014570819181782617,"11":0.11147101376116249,"12":-0.10289243299432818,"13":-0.15462313723468477,"14":-0.014816314351969954,"15":0.0877023923596027,"16":-0.13037358065683885,"17":-0.20643927768086578,"18":-0.16924054901507865,"19":-0.11061845373718505,"20":-0.022358784265497117,"21":-0.046633153859245956,"22":-0.10382238174132336,"23":-0.08097350925845442,"24":0.18367676404501096,"25":0.04436763515372821,"26":-0.06837558657110022,"27":0.026613249896370546,"28":0.02256690767360449,"29":-0.18483265617604663,"30":0.10739051803552406,"31":-0.12317862712706645,"32":0.2744352067313497,"33":-0.022146685938871695,"34":0.13963891716703167,"35":-0.1038256575760506,"36":0.23304278062686357,"37":-0.13696695426155805,"38":-0.10702241567493775,"39":0.12195793723748001,"40":-0.06177089592695611,"41":0.020474929638875178,"42":-0.09241617268453922,"43":-0.008119964955541585,"44":-0.0467245934686757,"45":0.007297579324788643,"46":-0.04335746919897524,"47":0.11855813998102405,"48":-0.19923921579303888,"49":-0.24761881416576817}},{"sx":1,"sy":1,"depth":50,"w":{"0":0.058302382364440096,"1":0.1066906391217346,"2":0.3896001523490602,"3":-0.17386850253144606,"4":-0.09181423927272869,"5":-0.045840428851843744,"6":0.0922357595389134,"7":0.44115465658626657,"8":0.012199421820129308,"9":0.04481541557602788,"10":0.10078230724063204,"11":0.035907698148303725,"12":0.018871706158784352,"13":0.006910857677291035,"14":-0.02786853719261688,"15":-0.032299752551725215,"16":0.010272874972470645,"17":-0.061909703038019036,"18":0.11581168893884766,"19":-0.006044402939346399,"20":0.16379871424612252,"21":0.1427805043559292,"22":-0.25758520798109813,"23":0.03931093344807922,"24":0.07681390300729575,"25":-0.07277781409296678,"26":0.14914193066596584,"27":-0.05383187975080693,"28":-0.0958395700202928,"29":-0.05056643331220384,"30":-0.13070935168398054,"31":-0.2546935500816464,"32":-0.07092569403405194,"33":0.005695423421166571,"34":0.09386787470094302,"35":-0.032096560262867856,"36":0.04207066416300461,"37":0.32912724795749393,"38":0.22815166695488734,"39":0.2150788169867374,"40":-0.416598885164305,"41":0.1735183100402061,"42":0.10231638001169034,"43":-0.08086064954607182,"44":-0.027613115745632053,"45":-0.29582546505207935,"46":-0.13070159927695965,"47":-0.03578570314746036,"48":0.10921839077542655,"49":0.0782826830586456}},{"sx":1,"sy":1,"depth":50,"w":{"0":0.04974713562113006,"1":0.02258398293669637,"2":0.09546011502633295,"3":0.04471762812253754,"4":0.025708527476447002,"5":0.11044507136596395,"6":0.08168642536197598,"7":0.035234160413388546,"8":0.10643462478758411,"9":0.01816351749390202,"10":0.009752274455925187,"11":-0.144224612445195,"12":-0.11230715106242885,"13":0.1280165988387114,"14":0.08556541712657494,"15":0.1441964508158111,"16":0.02760314516099724,"17":0.027229203826506454,"18":-0.1333087151133857,"19":-0.11897396151372651,"20":0.00025814855102497503,"21":0.058518614889130814,"22":-0.11030428267904574,"23":-0.04373904591872869,"24":0.09767730998381456,"25":0.09175886791328942,"26":0.07847703220450297,"27":0.3027574788054696,"28":-0.06842509566654564,"29":-0.14392992132405774,"30":-0.0734785146289394,"31":-0.05228525763053773,"32":0.034622784658470185,"33":-0.08812663434336265,"34":-0.07643734486231367,"35":0.015247851419680724,"36":-0.21120440402511523,"37":-0.1637814103737674,"38":0.18469057881239356,"39":0.20547088440079928,"40":0.16148087163343047,"41":-0.043268303579796746,"42":-0.0689988768768658,"43":-0.14874642532227678,"44":-0.06525684522574883,"45":0.07761997208233395,"46":-0.13798677219962824,"47":0.06870397711121082,"48":0.005184276009308531,"49":-0.1583657454970995}},{"sx":1,"sy":1,"depth":50,"w":{"0":0.01091541105837027,"1":-0.10171874511169239,"2":-0.15022019345158255,"3":0.12263362689717089,"4":-0.1193851922869109,"5":-0.1010164659618149,"6":0.0789829345122961,"7":0.11902638287995206,"8":-0.007013980449685343,"9":0.021515340245297443,"10":-0.16267396242402227,"11":0.14515688079696876,"12":0.08717034142655734,"13":-0.1298189334899067,"14":0.050139962242852505,"15":-0.010795212480607441,"16":-0.1834743534622296,"17":0.3075242453421758,"18":-0.042232456939303484,"19":0.022018529052869235,"20":0.09558225993749452,"21":-0.08717097231677486,"22":-0.23814734047590894,"23":-0.022809412070710307,"24":-0.05632870144908849,"25":-0.0664822567838117,"26":-0.08076854607812183,"27":0.045230179339681424,"28":0.23620233032442078,"29":-0.04738664604703809,"30":0.11200783915998601,"31":-0.09209593751509754,"32":0.012891098983553721,"33":-0.1959330454348479,"34":0.164043330156215,"35":0.2967369436232669,"36":-0.14797445597047465,"37":-0.07109784773092485,"38":0.10637534542836559,"39":0.04709202632674905,"40":-0.014442822557386582,"41":0.1163732539987183,"42":-0.0916920367628024,"43":-0.17500074894628992,"44":-0.014609547560986166,"45":-0.05580899328031574,"46":-0.29144092539732847,"47":-0.13465452678715217,"48":0.0782297884638635,"49":-0.12473195397562245}},{"sx":1,"sy":1,"depth":50,"w":{"0":0.0358003571009529,"1":-0.16169836871641774,"2":-0.12329805949039774,"3":0.18064113144063462,"4":-0.04489870753640281,"5":-0.01652481044843622,"6":0.3897590096936841,"7":0.3028622745317226,"8":0.04283587266462393,"9":0.11241296069755163,"10":0.10995934500143968,"11":0.01283639551808108,"12":-0.045877679718395487,"13":0.11455190742290854,"14":-0.1935272443605582,"15":-0.10311660604377897,"16":-0.0027497964763931147,"17":0.21110587268509215,"18":0.10035200496301626,"19":-0.0973307628874681,"20":-0.17085435908999472,"21":-0.006721597815625537,"22":-0.013954144821310866,"23":-0.15937827904516455,"24":0.2300554339418166,"25":-0.016698029362443904,"26":0.05172011432851614,"27":0.081415059894507,"28":-0.09211724570580637,"29":-0.07109064234471116,"30":0.1493163498611674,"31":0.0920310380131795,"32":-0.11103377602373601,"33":-0.15832241201538025,"34":0.03701619375190095,"35":0.04573212318171142,"36":0.1141530711100108,"37":0.02930232779365951,"38":-0.0221702024760766,"39":-0.1674110453170525,"40":0.025831665070411954,"41":-0.32634275166286913,"42":-0.17039560313831356,"43":-0.07765554460476662,"44":0.09961853632832135,"45":0.1456125916835862,"46":-0.11158374375823651,"47":0.06850883768520971,"48":-0.01704296679659637,"49":-0.13993865019968424}},{"sx":1,"sy":1,"depth":50,"w":{"0":0.018486687177980736,"1":-0.022243059591187456,"2":0.0695361480946112,"3":-0.24894262584873644,"4":-0.04420597847156031,"5":-0.15322061207043408,"6":0.05047966137946705,"7":0.038079393849658735,"8":0.17609227235047217,"9":-0.06708085622533508,"10":-0.12847838128289374,"11":0.18690535367579972,"12":0.10413577970884383,"13":-0.0187177439690168,"14":-0.11692637658644056,"15":0.2952290683127128,"16":-0.08965779793145193,"17":0.09053000182045234,"18":-0.10986312550641904,"19":0.022284854882807112,"20":-0.15316153970413474,"21":-0.036813110865711623,"22":-0.1402182558606182,"23":0.009996314096295655,"24":-0.08837964394401941,"25":0.0032006288678235505,"26":-0.19228177495473306,"27":0.06480946569340659,"28":0.14770516913239456,"29":-0.0019241908719617672,"30":0.08940750830103135,"31":0.0428213615079935,"32":0.011517490020261338,"33":0.08155382872931127,"34":-0.06701053933185028,"35":-0.13264054157111818,"36":-0.20125948670355504,"37":-0.006447859559678931,"38":-0.18421295840263913,"39":0.10212241716233049,"40":0.19790719953565636,"41":0.16256186474085071,"42":0.06653716500169572,"43":-0.2736340372210703,"44":-0.17912848029595768,"45":0.18784158257350578,"46":0.1605693055292396,"47":0.022504742812635346,"48":-0.11807172090839496,"49":0.07289547426226436}},{"sx":1,"sy":1,"depth":50,"w":{"0":0.2761335800146128,"1":0.004665576880107975,"2":-0.18795468418720754,"3":-0.18649122241193358,"4":0.07679601454870526,"5":0.1647651984504712,"6":-0.17255567336249353,"7":0.26835850456213045,"8":0.056894236293238684,"9":0.03587773369147755,"10":0.08721620958951883,"11":-0.06402363870242675,"12":-0.04803709798289398,"13":-0.012390728414895675,"14":-0.14803214889658667,"15":0.036976836567661694,"16":0.1543120397360378,"17":-0.21160696143510954,"18":-0.19384758089566376,"19":-0.12027330865452852,"20":0.06871682785705745,"21":0.001721277189593101,"22":0.05422546930471716,"23":0.11443813832643908,"24":0.0737602776386477,"25":0.1329595980789036,"26":-0.10557118160127175,"27":0.1098802115974165,"28":0.09980400220215817,"29":0.24941622479856188,"30":-0.006149444716214412,"31":0.03342263710573106,"32":0.053297451230355355,"33":0.12820183217389455,"34":-0.010225310129923596,"35":0.07477279404182814,"36":-0.0682514846283132,"37":0.12486470817160596,"38":-0.03633988519455683,"39":-0.14730953345648093,"40":0.06847139871181494,"41":0.06626541620626428,"42":-0.0035074706866992846,"43":0.02399652237765852,"44":-0.046351481310808094,"45":0.13143492860328637,"46":0.08615232498500922,"47":0.0837216243103021,"48":0.06633183689337507,"49":-0.11208059255402811}},{"sx":1,"sy":1,"depth":50,"w":{"0":0.10880671451748113,"1":0.2946877783338784,"2":-0.2920012041950187,"3":-0.1038434748739524,"4":0.20716444385993374,"5":0.03465734818480077,"6":0.0063855742387431075,"7":0.15317631429301978,"8":-0.04535624742837684,"9":0.14035007642892036,"10":0.010526662988343176,"11":0.1557473831453618,"12":-0.18003562747544047,"13":-0.14524499860929155,"14":0.057432795134656614,"15":0.03846945677730238,"16":0.047933617361250506,"17":-0.04484381813701045,"18":0.09793913082996704,"19":-0.04960016456051616,"20":0.277518822447052,"21":-0.012440916584265566,"22":0.17016719064286046,"23":0.04198060815260713,"24":-0.08959592265890519,"25":0.03426308309121691,"26":-0.15699850571185633,"27":0.14327648467478543,"28":0.026111857212333698,"29":-0.0013961417405600805,"30":0.03933699980797487,"31":0.1763897455123459,"32":0.045678155788852204,"33":-0.2669478531750457,"34":-0.20457340202812857,"35":-0.07913762548241082,"36":0.06178826258870572,"37":0.004741643064454897,"38":-0.027801096075967785,"39":-0.2623043990270267,"40":-0.1750722468483425,"41":0.11788634161695875,"42":0.10982003336472407,"43":-0.05756559374534309,"44":-0.09687750500176413,"45":0.20787116743637538,"46":0.02911795202296419,"47":0.1999363069129329,"48":-0.07107566659141233,"49":-0.008230058389389363}},{"sx":1,"sy":1,"depth":50,"w":{"0":-0.16431789191433682,"1":0.19985585969746256,"2":-0.03699570249268558,"3":-0.027651658743160525,"4":0.033661487126508016,"5":0.1506653007637962,"6":0.3166078543913181,"7":-0.12145935897365606,"8":-0.21716641324400568,"9":-0.04631726411740088,"10":0.13648308529586384,"11":0.13438572018803108,"12":0.12809001038266116,"13":-0.0029318139209690503,"14":0.2711537045077556,"15":-0.038204852089532365,"16":0.13976505584902202,"17":-0.01869466926433641,"18":-0.007515685466552645,"19":-0.10414447422201234,"20":0.14861712608476318,"21":0.1957646494484971,"22":0.008784480093663682,"23":0.16512974973782277,"24":-0.09994347873830009,"25":0.041803566323370886,"26":0.045686432425493584,"27":0.0028196987932440497,"28":0.12306740993695345,"29":-0.06073052848425285,"30":-0.25761879834568885,"31":-0.0703371768220717,"32":0.2105822995227791,"33":-0.17569785998537832,"34":0.004046347591833576,"35":0.03849202000148945,"36":-0.07409532510267577,"37":0.16337620572894215,"38":0.10366070404728775,"39":-0.1353905745793458,"40":0.12170571949275971,"41":-0.16782162822370805,"42":-0.17779140386241632,"43":0.0605003433422516,"44":0.14310614012992962,"45":0.19714508684829865,"46":-0.008951513990225944,"47":0.2731014426330164,"48":0.017289834218544037,"49":-0.07369126278658074}},{"sx":1,"sy":1,"depth":50,"w":{"0":-0.04236616837460114,"1":-0.02753494803022715,"2":0.27505553347296324,"3":-0.008541056218471201,"4":-0.014679806665863328,"5":0.1354404139994212,"6":0.08408868804685866,"7":0.01758251107264004,"8":0.09882502452646887,"9":0.12550422750624876,"10":-0.016785702243919964,"11":-0.041610078604038044,"12":0.07742757037935812,"13":0.014195779520996306,"14":-0.14181995366102876,"15":-0.06160741165849032,"16":-0.060899002650865224,"17":0.24333751554272542,"18":0.06409767232259442,"19":-0.01992136570050724,"20":-0.013095427614691327,"21":-0.09412719227139295,"22":0.2404799773697589,"23":0.056227755211173375,"24":-0.0761108840139365,"25":0.300512564263399,"26":-0.2582574778078046,"27":-0.035820627882960955,"28":0.0008995177614805925,"29":0.09532954544535896,"30":-0.11376375417224523,"31":0.0879747253050892,"32":-0.10403234056999565,"33":0.14378467766745984,"34":0.16980301234068235,"35":0.05966070613541787,"36":-0.22170428858597568,"37":-0.024638918482027046,"38":0.14354974275648405,"39":-0.2464221985803082,"40":-0.03544681511806362,"41":0.201421869762438,"42":-0.06925247430095838,"43":0.13233837824892095,"44":-0.12276224878778462,"45":0.03465816124847276,"46":-0.09036943476125005,"47":-0.09579817286556092,"48":-0.22492732412112665,"49":-0.040646376269560046}},{"sx":1,"sy":1,"depth":50,"w":{"0":-0.0330440038612906,"1":0.007721238018299543,"2":0.04820057651608136,"3":-0.026021684243419562,"4":0.18539981875103267,"5":-0.15329887647482893,"6":-0.005725284076529297,"7":-0.008674183155436044,"8":0.13978119311467385,"9":-0.08983939661508707,"10":-0.15068351420895643,"11":0.05877041786627985,"12":-0.03106871903866439,"13":0.26226204519161156,"14":-0.045277614457205816,"15":0.08460059708006636,"16":-0.0026662871682633857,"17":-0.16299442851750995,"18":-0.04267556370687275,"19":0.15848880538017965,"20":-0.07951879717529614,"21":0.013936543798540677,"22":0.22786204430965487,"23":0.004048418842287253,"24":-0.060428756732052606,"25":0.15111656930993794,"26":-0.06970802715013875,"27":0.1451311292902273,"28":0.047078860334711294,"29":0.34629048605497925,"30":0.23873692963598442,"31":0.1080775131313821,"32":0.005337110284943848,"33":-0.03945756705618782,"34":-0.17423297100757645,"35":0.13086049804905117,"36":-0.0938641407897546,"37":0.06525368764571847,"38":-0.06526932236590507,"39":-0.021596479229697374,"40":0.26205958309333816,"41":-0.140020080400508,"42":0.05627858873538351,"43":-0.09005331541697266,"44":-0.15074671842308882,"45":0.13771409443933982,"46":0.1124309897660019,"47":0.23213627062413592,"48":-0.01375565942682353,"49":0.08681895651433136}},{"sx":1,"sy":1,"depth":50,"w":{"0":0.16574135711148827,"1":0.023221130952472722,"2":0.14141580087692135,"3":-0.00187355206887986,"4":0.11292244895337392,"5":-0.08205357154953183,"6":0.1259691191491195,"7":-0.1467724352415967,"8":-0.08619931115020754,"9":-0.0857718458578892,"10":-0.16578099966781112,"11":0.2018834895356645,"12":0.11729374349750415,"13":-0.2976192103176816,"14":-0.15176820502992092,"15":-0.06336982549514052,"16":0.08363894819232878,"17":-0.04589488851090993,"18":0.05227287855172956,"19":-0.017467067579427502,"20":0.021794930782863223,"21":0.16524374417352367,"22":0.023605620593399185,"23":-0.07932469280311168,"24":-0.15625236362888484,"25":0.02338084131485775,"26":-0.2613970728887327,"27":-0.045652115555456674,"28":-0.06158634970487904,"29":-0.011161109737334179,"30":-0.013104946815370647,"31":0.05791054404083792,"32":-0.06416914273785967,"33":0.3179796389028174,"34":-0.057737421917077855,"35":-0.03665559828365251,"36":0.08807712993491264,"37":0.09684298401076846,"38":-0.1335753254094827,"39":-0.04471283319633774,"40":0.03467006582345363,"41":0.13632113849511726,"42":-0.09834705003646406,"43":-0.10100723574807535,"44":-0.0795992185073042,"45":0.12945198874922123,"46":-0.1109111579996881,"47":0.016154106611939143,"48":0.15986824007022601,"49":0.19822137039919763}},{"sx":1,"sy":1,"depth":50,"w":{"0":0.00038125606116772725,"1":0.11580872356825984,"2":0.13993093766574577,"3":0.09404091337657547,"4":0.06159646992512361,"5":0.00841254002133553,"6":-0.04029164129554654,"7":-0.07770641204213893,"8":0.11433231833984393,"9":-0.12848123288873034,"10":-0.034567378705139325,"11":-0.40311891577538955,"12":0.074537374248984,"13":-0.17781423041029207,"14":-0.014447775918022975,"15":-0.03708182123939668,"16":0.030755731090231584,"17":0.08450798179765802,"18":0.05570334556592811,"19":0.006395832108804873,"20":0.26048576292844877,"21":-0.12466062150920279,"22":0.007173199650404018,"23":-0.03306979230569103,"24":0.248485794598289,"25":-0.09465651438348487,"26":0.03989400584973613,"27":-0.1251327439893747,"28":-0.043676160557344815,"29":-0.25589616907068996,"30":0.1051441320379774,"31":0.16459016147125147,"32":0.006961069134476061,"33":0.002363362020072366,"34":0.13034373943070293,"35":0.08162591341196515,"36":0.12549851807116066,"37":0.030112344416488423,"38":-0.0975937135303292,"39":-0.2590916157008819,"40":-0.005632948439969238,"41":-0.07134216595378008,"42":-0.05904490128599294,"43":0.08408365602191237,"44":0.051088675370851155,"45":0.029444488539289146,"46":0.048939062186142544,"47":0.09572149233684019,"48":0.10764977098637188,"49":-0.24439994577704008}},{"sx":1,"sy":1,"depth":50,"w":{"0":0.1547200950008567,"1":0.1001543665445171,"2":0.17766920145641188,"3":0.05486333385800681,"4":-0.10559070279801028,"5":-0.10309933154886954,"6":-0.0855688379083941,"7":-0.0477992458400064,"8":-0.16922060665499847,"9":0.0010934775841323116,"10":-0.0816863016228368,"11":-0.12245457671886119,"12":0.05681086417330774,"13":-0.1530189987579708,"14":-0.06535556692860583,"15":-0.14358903132403802,"16":-0.038404670972834384,"17":-0.014986324791463904,"18":0.09091162467478509,"19":-0.12941007976110905,"20":0.15852903625228398,"21":0.07619010756678679,"22":-0.11547660095572782,"23":-0.06290644290463233,"24":0.040204412219058405,"25":-0.00793423598705566,"26":0.07303674041933038,"27":0.061179773079042626,"28":0.10190428664806056,"29":-0.17180589153508047,"30":-0.20120947060872954,"31":-0.09006078115915477,"32":0.1202487525406577,"33":-0.11305693235857124,"34":-0.035941962377067496,"35":0.21984493685791023,"36":0.10699821952713669,"37":-0.11183577849169074,"38":0.21141403322834984,"39":-0.2510858000968207,"40":0.15633788339852603,"41":-0.08268440330325558,"42":-0.05326057381478731,"43":0.04821303096625677,"44":-0.017065033530680992,"45":0.30579717511553367,"46":-0.05579118967582894,"47":0.14437251177999647,"48":0.02870959674210931,"49":0.00961330969068337}},{"sx":1,"sy":1,"depth":50,"w":{"0":-0.27010801847145804,"1":0.0987407703197045,"2":0.052161590603417594,"3":-0.18674777833372078,"4":0.024916785315712255,"5":-0.23703801146428152,"6":0.04622906236763226,"7":0.06283908755625023,"8":0.08278727128240217,"9":0.0337866838708864,"10":-0.10506098436399917,"11":0.07812147744423482,"12":-0.24328838907397826,"13":0.18748835547628098,"14":-0.03982937778143269,"15":0.04133005405876146,"16":0.11075348903677838,"17":0.3563977957469641,"18":0.039181076588316786,"19":0.0178598779554976,"20":-0.017309183285756244,"21":-0.18885568644354175,"22":0.11179917894758208,"23":0.1593599710880527,"24":-0.0006116913664664529,"25":0.3923157764627613,"26":-0.30717593744518396,"27":-0.059016341942819794,"28":0.26092040829137864,"29":0.06511520880175298,"30":-0.06929595876950868,"31":0.09955530652428385,"32":0.11622522462531307,"33":-0.2723677134684975,"34":0.1973591909405293,"35":-0.15219440222615427,"36":-0.08825012374577688,"37":0.06488168997706668,"38":-0.03560782853790476,"39":-0.10616461365053013,"40":-0.12207861254323732,"41":0.1397930628317351,"42":-0.0058848942014313645,"43":-0.03930106750110159,"44":-0.0594054618434688,"45":0.14039451161352515,"46":0.003313950668906141,"47":0.13928744036219495,"48":-0.014732566281937903,"49":0.05156644716563684}},{"sx":1,"sy":1,"depth":50,"w":{"0":0.14247485289095688,"1":-0.08063182764033051,"2":0.08816450091323315,"3":0.0016527551415450876,"4":-0.22792127694514072,"5":-0.06691071279244781,"6":0.05200437781194221,"7":-0.09704378613357457,"8":-0.20234818264993462,"9":-0.2560621879451338,"10":0.12638741950452015,"11":0.018519138314140052,"12":0.005154651338562672,"13":0.20756013692125763,"14":0.026553757096384002,"15":0.06491128791254051,"16":-0.07101883834637751,"17":0.12063250923916342,"18":-0.1081996844205168,"19":-0.026792323889843074,"20":0.19522978939026453,"21":-0.30201554849160867,"22":-0.17233827563553236,"23":-0.11155606502859787,"24":0.16400619117946375,"25":-0.1693515178934732,"26":0.20770982176985173,"27":-0.08216045630252157,"28":0.2654704053352983,"29":-0.061567082839790815,"30":0.06826782450476149,"31":0.08113335398186837,"32":0.20643010793881472,"33":-0.013910534847216285,"34":-0.008888047455818575,"35":0.1374415755473648,"36":0.1750677044561373,"37":0.13590371107091828,"38":-0.0610882998614409,"39":0.07680053724316616,"40":0.0698040921296062,"41":0.10211485864440263,"42":-0.009427244773884994,"43":0.0714558148046984,"44":0.10996659386410877,"45":-0.0900051961611699,"46":-0.00889680661489625,"47":-0.0023186565469252383,"48":0.014773335407271743,"49":-0.12102514772698056}},{"sx":1,"sy":1,"depth":50,"w":{"0":-0.20651211214599402,"1":-0.0146528348142237,"2":0.14321931703861887,"3":0.048207599948720536,"4":-0.08209635049374873,"5":-0.15346246776569605,"6":-0.14278755842389543,"7":-0.09372018284261723,"8":-0.15981231693184003,"9":-0.23933118932835937,"10":0.0009712329726681826,"11":-0.04710900348099194,"12":-0.12252282442859777,"13":0.12082718762228023,"14":0.17869007639627166,"15":-0.05573912673618011,"16":0.12007985797220021,"17":0.10022885027196635,"18":-0.00047350234210910254,"19":0.09007541038050536,"20":0.05603985193647414,"21":0.04063564007111493,"22":-0.03707108156007985,"23":0.011616006470877741,"24":-0.09551812995628114,"25":0.08770638377738028,"26":0.005613484169053665,"27":-0.0018149760177754715,"28":-0.31017982838958263,"29":0.17438975850506758,"30":0.2660594577743215,"31":0.05157694062652956,"32":0.040241596954155336,"33":0.22477840621698975,"34":0.08642683646215292,"35":-0.112154839517856,"36":-0.05603261840439187,"37":-0.1736674819465163,"38":-0.16812097559627096,"39":-0.13356977820937205,"40":-0.37496429212905535,"41":0.0699614387058446,"42":-0.10362507451097697,"43":0.0678056749861352,"44":0.22275151063498252,"45":-0.12324908808921077,"46":0.14864572897824457,"47":-0.02793708811812705,"48":-0.12441847409662951,"49":-0.030978898348601496}},{"sx":1,"sy":1,"depth":50,"w":{"0":0.04345347958062508,"1":-0.17607072522120004,"2":-0.1824955810125127,"3":0.19676072531605512,"4":-0.18900198956455447,"5":-0.14751079282163743,"6":0.1102777939195656,"7":-0.07654819974156639,"8":0.06270742020482402,"9":0.35658254604899803,"10":-0.1772986917528495,"11":0.10757676899871003,"12":0.4349273538498532,"13":-0.09140138062513098,"14":-0.23279072889431424,"15":0.10046038205456453,"16":0.06928953846507865,"17":0.24727621869562993,"18":0.13649929205098874,"19":-0.2018233514017848,"20":-0.17271404378574737,"21":-0.11811552155367418,"22":0.13728827073272346,"23":-0.025620917779223828,"24":-0.18739546778586263,"25":0.06690669746471715,"26":0.009856099533623179,"27":0.023672374207295795,"28":0.1342121843716104,"29":-0.0810153939755734,"30":-0.14799857673621294,"31":0.01438473139528182,"32":-0.040699292225573086,"33":-0.06334187154640432,"34":-0.05238031235584489,"35":0.07690759999168122,"36":-0.09099746780423008,"37":-0.1243644483468183,"38":-0.19318894073808446,"39":-0.0460628153495182,"40":0.0678055454328344,"41":-0.19457952037457993,"42":-0.025702882460278367,"43":0.038780530244478036,"44":-0.2394031102007357,"45":-0.1731565603640337,"46":-0.013924422506505779,"47":-0.06470374474940659,"48":-0.0755982449825715,"49":0.05628372975592481}},{"sx":1,"sy":1,"depth":50,"w":{"0":0.026020824817563026,"1":0.08438810279872468,"2":-0.1285475991631154,"3":0.0703759434345014,"4":-0.023675708227346454,"5":0.06402586082928169,"6":0.060236416932232785,"7":0.011730439816646444,"8":-0.17998066246526673,"9":0.11665469398423095,"10":-0.14670392308476152,"11":0.15219092183370347,"12":0.02514547159382213,"13":0.10425661740636502,"14":-0.11954714172879777,"15":-0.04629061909655141,"16":0.09193468551683036,"17":-0.089611430081304,"18":-0.041965514829889784,"19":0.008780921991158592,"20":-0.1266376635424043,"21":0.024600121957990138,"22":0.10503805995004172,"23":-0.058228028634336224,"24":-0.2028850929726579,"25":-0.16544728294096744,"26":-0.08269263428672004,"27":0.297327605470433,"28":-0.0182579580267964,"29":-0.18768997256349965,"30":0.06609118473086432,"31":-0.0075229926847745765,"32":0.24061839236564944,"33":0.14922655194065743,"34":0.10515667942341657,"35":0.039749529531017944,"36":0.02242288411070551,"37":0.13905510474017774,"38":0.08630275821896215,"39":-0.3714425927597577,"40":0.01484074686742823,"41":-0.15183722380218187,"42":0.16033794637763266,"43":-0.07225478127389953,"44":-0.0587284047010075,"45":0.012755394290049835,"46":0.011779093798086457,"47":0.08326425714382218,"48":-0.07381646286151221,"49":0.06865840757688754}},{"sx":1,"sy":1,"depth":50,"w":{"0":-0.2578042224781763,"1":-0.06986111939749005,"2":-0.1044853423951495,"3":-0.09915630900195377,"4":0.1836660439896544,"5":0.0016377144473909073,"6":0.05767111646453609,"7":0.03042184448632199,"8":-0.05283565947526543,"9":-0.050743811560185086,"10":0.01076580636029272,"11":-0.13143598468081433,"12":-0.1441429018539571,"13":0.02048814573120073,"14":-0.1283834272965049,"15":0.06507517332997276,"16":-0.13682209387062091,"17":0.04359210339512662,"18":-0.07621463655830508,"19":-0.09670933213582432,"20":-0.03491548053902389,"21":-0.11334981539704807,"22":-0.2556886111575762,"23":-0.1174742117384233,"24":-0.1008609966184491,"25":-0.04227942627548864,"26":-0.2320421102767414,"27":0.08395238304000704,"28":-0.09633925929014298,"29":-0.00240651578804879,"30":0.04636510083860878,"31":-0.1816353465833053,"32":-0.046938754301751574,"33":0.02763329504538258,"34":0.06126479634934382,"35":-0.1252911486198244,"36":0.0749509466730786,"37":-0.023493438354823898,"38":0.1525279705044505,"39":0.09519168116296427,"40":-0.01152579977352078,"41":0.007249008848213837,"42":-0.05059019309738086,"43":0.2057778001063112,"44":0.04051711051241161,"45":-0.1167438433622244,"46":0.1597581844305932,"47":0.2338470684487674,"48":-0.04388707007221226,"49":-0.12061977672017513}},{"sx":1,"sy":1,"depth":50,"w":{"0":-0.023998169456831583,"1":0.26125813564435707,"2":0.020539140402448954,"3":-0.12003080789851908,"4":0.03615365531486046,"5":0.141086982078416,"6":-0.016088593886466083,"7":0.08427736903530492,"8":-0.1385481219162422,"9":0.08112572969154042,"10":0.041985322748269806,"11":0.05413960369423809,"12":0.108988902001432,"13":0.1507707393479477,"14":0.015766962815384127,"15":-0.2317298484041351,"16":-0.12786066703100946,"17":-0.174287209947523,"18":0.13879809772386872,"19":0.10444461220141589,"20":-0.1498038024742887,"21":-0.10268584390775887,"22":-0.20316324473155375,"23":0.23339159298073023,"24":0.039767590789320954,"25":-0.11447144880398288,"26":-0.10054881682358766,"27":-0.3190257537806072,"28":-0.07098738616312089,"29":-0.1286676165640059,"30":0.22442408080646123,"31":0.21904456174677153,"32":-0.21255056313636272,"33":0.016646127711113005,"34":0.044008933188421924,"35":-0.026227064498876233,"36":0.033205294812304484,"37":0.06292868909242573,"38":0.06413249082291307,"39":-0.2832270329340248,"40":0.18991938285397306,"41":-0.0964491264611602,"42":-0.0012732211027914428,"43":0.07050584432166465,"44":-0.09163577336192673,"45":0.1128647731939015,"46":0.01389459579949604,"47":-0.06826350244603667,"48":0.07439605870723404,"49":-0.10799979612966543}},{"sx":1,"sy":1,"depth":50,"w":{"0":-0.13414767932756783,"1":-0.18520710819731406,"2":0.04185291609504563,"3":-0.06211841102517952,"4":0.11757106065063952,"5":0.024003475334462194,"6":-0.18615598149797224,"7":-0.03673273244140007,"8":0.08284084923440622,"9":0.2611679807409144,"10":-0.028757789164251063,"11":-0.1269227747559269,"12":0.005700852349479957,"13":-0.11234278953809147,"14":0.3442759278205245,"15":0.15941935779099245,"16":-0.10039335935356174,"17":0.14661907009962816,"18":0.02410193566871243,"19":-0.06958897550409504,"20":-0.04070582983299806,"21":-0.1834659009924154,"22":0.09374637462204938,"23":0.1159977484673792,"24":0.05424547971124127,"25":-0.15195006929943186,"26":0.19377529471605595,"27":-0.01867765806844774,"28":-0.2000021209491777,"29":0.018478998719899133,"30":-0.04672508915211883,"31":-0.07889866206923626,"32":-0.1793244952179579,"33":-0.0077699622381338495,"34":-0.01048862696170258,"35":-0.11903841690922229,"36":0.32660206892037513,"37":0.013244842083016595,"38":-0.2374726315787972,"39":-0.010372640565118251,"40":0.022392927039153063,"41":0.18520575561767577,"42":-0.11259922521850436,"43":-0.05342605772902842,"44":0.10966551568725894,"45":0.0157662214449949,"46":0.2141145848147901,"47":-0.054175256541294965,"48":-0.08896987478138572,"49":-0.0916716229567345}},{"sx":1,"sy":1,"depth":50,"w":{"0":0.0048302114205514435,"1":-0.052929858020003176,"2":-0.019970492202196058,"3":0.10062561488074874,"4":0.2235250531450397,"5":-0.07876762359999295,"6":0.06215932289081322,"7":0.05012666403922989,"8":-0.17936149665955053,"9":0.07400718375629312,"10":-0.008813125178768541,"11":0.057243853898361306,"12":0.027762752160893876,"13":-0.04618398703767413,"14":-0.0028582295232568162,"15":0.11064471333744809,"16":-0.2384414455968408,"17":0.07741676456517253,"18":0.10952968091576128,"19":-0.287058949443528,"20":0.05273155255163204,"21":0.14395749398395621,"22":-0.029998633594003773,"23":-0.2335553103847515,"24":0.10279776290634667,"25":-0.0728334497043277,"26":-0.0006889837796130199,"27":-0.005648385591515707,"28":0.014299618810917474,"29":0.020409125921336303,"30":-0.07783775426561265,"31":-0.025987834640257418,"32":0.008459507576748846,"33":-0.14121864451936894,"34":-0.13905467424692686,"35":-0.23089227789260303,"36":-0.1527454412073107,"37":0.1143949793837756,"38":-0.007969615316877055,"39":-0.0600391493883554,"40":0.23373968666609318,"41":-0.0025774363903126826,"42":0.08353934596394498,"43":0.06110712440328113,"44":-0.07500568385535775,"45":0.07675196174163347,"46":0.10993820274527594,"47":-0.04302801867136157,"48":0.0742487051262344,"49":-0.09868377113806434}},{"sx":1,"sy":1,"depth":50,"w":{"0":0.09335568982842249,"1":0.14323978286296932,"2":0.056164261678572545,"3":0.01108973482890275,"4":-0.07282619258162468,"5":0.022061682748256886,"6":0.0017620090258496312,"7":0.0855573417424719,"8":0.11032535794639935,"9":0.06520566211372963,"10":-0.1140045424627281,"11":0.273611643378716,"12":-0.11725816042119928,"13":0.13102431655414,"14":-0.143488461747502,"15":-0.01405333990996029,"16":0.15798919837575096,"17":-0.08119332575043697,"18":0.1068653856976823,"19":0.01619165285885364,"20":0.04325013139629751,"21":0.18166285054813433,"22":-0.11794974109977577,"23":-0.13791027098637673,"24":-0.030681465380571385,"25":0.029538977036139908,"26":-0.0015935114178607722,"27":0.0839886868756791,"28":0.32429149411249525,"29":-0.41156925104129505,"30":0.09364968699576423,"31":-0.0783313352801321,"32":-0.11681012655778274,"33":0.13265302732101678,"34":0.20529988640502522,"35":0.07245167153081641,"36":-0.13249650660888843,"37":-0.1285250473382777,"38":-0.07121090424368935,"39":-0.03440437276748974,"40":-0.1303280086115221,"41":-0.09834754952283807,"42":0.09101954637177156,"43":-0.16782991189149232,"44":0.07608645991890442,"45":-0.14138244536188616,"46":-0.3434592022160211,"47":-0.07366532233070441,"48":0.021247514414013277,"49":0.08194060813615676}},{"sx":1,"sy":1,"depth":50,"w":{"0":0.014292923536003086,"1":-0.10678358590646964,"2":-0.03069564975730673,"3":-0.06653071406482544,"4":-0.09695892068670367,"5":-0.0634533471480531,"6":0.08458590586101078,"7":0.03695243357462378,"8":-0.03737797531198167,"9":0.07175977995605629,"10":-0.0415873250515935,"11":-0.07626128995360963,"12":0.024795077165397434,"13":-0.1791377107023531,"14":-0.10602896976224041,"15":-0.12008009341222625,"16":-0.05137284753774257,"17":-0.1104032037391627,"18":0.12713408427770304,"19":0.3004454984664567,"20":-0.1263197610525699,"21":0.19364952742088312,"22":0.04424276755064966,"23":-0.5082021138250932,"24":-0.1003702441829124,"25":-0.1129922459399553,"26":-0.05514437869297114,"27":0.10708623856952491,"28":0.21889206251237384,"29":-0.17866440438484174,"30":0.057151122959929745,"31":-0.0147491596624869,"32":0.08992849645385556,"33":0.218869883873592,"34":-0.21587555633138844,"35":-0.035402267418795985,"36":0.09581287442288793,"37":0.030548779583191698,"38":-0.11683519786803646,"39":-0.00025522686788474595,"40":-0.2631002538060516,"41":-0.010134448762625018,"42":0.028905383818325064,"43":0.0013080093062513873,"44":0.012704455171496173,"45":-0.10621574880497937,"46":-0.019310781031372348,"47":0.07828200235235373,"48":0.04484515414563207,"49":0.020347268527113268}},{"sx":1,"sy":1,"depth":50,"w":{"0":0.1092038087599388,"1":-0.1558923588744859,"2":-0.021838577398870237,"3":0.19543816617314969,"4":0.1414751997144038,"5":0.10294208880888082,"6":-0.08806242006243611,"7":0.12487862228366836,"8":0.32038094537390394,"9":-0.07902200009144388,"10":-0.02076298089397883,"11":0.1750611775656271,"12":0.134946540166414,"13":0.09312089767465469,"14":-0.1706570244396804,"15":0.0372091258379062,"16":-0.12378466528466188,"17":-0.1420568030401271,"18":-0.05154275233121765,"19":0.18369745972275212,"20":0.02966811602328111,"21":-0.023962340225941917,"22":0.10675300649803132,"23":0.043968017260920096,"24":-0.1563127386104238,"25":-0.0753123173727966,"26":0.09738678232011969,"27":-0.22071996089113602,"28":0.0363643506365838,"29":0.14485916817007735,"30":0.23028090772769855,"31":0.11421275195357566,"32":-0.13549090575929323,"33":0.09091314133967418,"34":-0.1189848864624915,"35":0.08162003043983428,"36":-0.18003091800799115,"37":-0.3932750907716316,"38":-0.2501563226745068,"39":-0.017220681243722603,"40":0.33252911173051747,"41":-0.008615049235989578,"42":0.04606409080660727,"43":0.32330503031724706,"44":-0.11641876678584433,"45":-0.043438839424690054,"46":-0.18486894707732876,"47":0.07339074173885136,"48":0.12299168394436782,"49":0.03024627318710282}},{"sx":1,"sy":1,"depth":50,"w":{"0":0.08719044608685114,"1":0.0456966378494309,"2":-0.3840209808616497,"3":0.1697265600494333,"4":-0.07658231818295538,"5":-0.09071415175326814,"6":-0.21278869835760816,"7":-0.23489329662040392,"8":-0.04190142260744478,"9":-0.012856250344558224,"10":0.07415627531424869,"11":-0.01640917571602672,"12":-0.16402435723217135,"13":0.10328176326566903,"14":0.19769935570517796,"15":0.06377237216492243,"16":0.3906046822547764,"17":-0.05514257365602724,"18":-0.004413722613369967,"19":-0.02412497098090732,"20":0.16945173344890943,"21":0.014415242300674576,"22":0.08676308850060056,"23":-0.13238313508246857,"24":-0.2643779061326977,"25":0.2391420570564586,"26":-0.05000135726298944,"27":0.02927005742280906,"28":0.25124793809338725,"29":-0.08288221116665638,"30":-0.04123396148462951,"31":-0.04510544464943737,"32":0.34222839921527604,"33":-0.3893971123063933,"34":0.16488466588218245,"35":-0.013813827067269312,"36":0.12926286688095992,"37":-0.08889408788579486,"38":0.041864238715565126,"39":0.06431107686122216,"40":0.13335555685657965,"41":0.09328794065554118,"42":-0.32308250359474616,"43":0.04346146740155526,"44":-0.0887119706576998,"45":-0.02502569510679238,"46":0.22345576069910073,"47":-0.1305781038615051,"48":-0.2802156948384468,"49":-0.13053426425395848}},{"sx":1,"sy":1,"depth":50,"w":{"0":0.07725777985123851,"1":-0.17077476605593211,"2":-0.07344184519406802,"3":0.04890879845581234,"4":-0.06509838451729844,"5":-0.10226868469313982,"6":0.14035342151203326,"7":-0.18123458665167222,"8":0.042973120237122756,"9":-0.15463868723442,"10":0.12903794996796336,"11":-0.27103890949059106,"12":0.042203952259529005,"13":0.3554563644232268,"14":0.3102181907705974,"15":0.07245724352430578,"16":0.11228243260855605,"17":-0.01924261385268432,"18":0.22997125798229703,"19":-0.0628664090111755,"20":0.02522805639039415,"21":0.10852258324559326,"22":0.24932106525868428,"23":-0.1153652251359007,"24":-0.0704905445101753,"25":0.131711032678856,"26":-0.17796709770044583,"27":-0.012823129770950379,"28":-0.1631808727623852,"29":0.09923100383163128,"30":0.13270276832783928,"31":-0.12336377308775189,"32":0.08426573399318897,"33":-0.06375884076425856,"34":-0.17081008289946703,"35":-0.03358499847555584,"36":-0.14156657399472788,"37":-0.244560675235299,"38":0.026769673341267414,"39":-0.15117644534260974,"40":0.3906907260302057,"41":0.05440042771694706,"42":-0.1553147617800921,"43":0.22323239649449264,"44":0.06744531283227856,"45":0.1643321997189998,"46":0.007469567705764646,"47":0.08317831713651268,"48":0.03041408802111734,"49":0.2798748134631459}},{"sx":1,"sy":1,"depth":50,"w":{"0":-0.004545843313947009,"1":-0.020416091045149413,"2":-0.1368075683340125,"3":0.08932687075702642,"4":-0.12349719461581683,"5":-0.00786152005142106,"6":0.15763190048168083,"7":0.004111632263623967,"8":0.0256242288366446,"9":-0.23369609063583371,"10":-0.3113962297215765,"11":0.19349532472148856,"12":0.0665983028816659,"13":-0.21129150381832545,"14":0.12336437230964925,"15":-0.03670568201524659,"16":-0.1572176196739448,"17":0.03858834162078908,"18":-0.12526172191474244,"19":0.0656507722172713,"20":-0.13134661386177865,"21":0.04387601712475855,"22":-0.13944379460754408,"23":0.18641323710950944,"24":0.025214898181804557,"25":0.039584460455000164,"26":0.10767174929628917,"27":0.022082678294851537,"28":-0.0911678693473734,"29":0.2732009253370215,"30":-0.09260688324497258,"31":0.05444146853517856,"32":-0.04456641723309123,"33":0.20614827707789782,"34":-0.19682018057486536,"35":0.2179034940830982,"36":0.09350441838216658,"37":-0.036033939375677074,"38":0.047875444711565886,"39":-0.19852734102176575,"40":-0.1330778327193385,"41":-0.09627430213346515,"42":0.1610178740863953,"43":0.09372527879204567,"44":-0.019170293817774662,"45":-0.027576718228075472,"46":0.12729293610880907,"47":-0.06751246365537185,"48":0.04956608511620223,"49":0.01379882083921446}},{"sx":1,"sy":1,"depth":50,"w":{"0":0.04819578905283451,"1":0.04935774602065445,"2":-0.15945351338600722,"3":0.035471750031044434,"4":-0.24391250480033164,"5":0.1613839013401087,"6":0.05952570603010106,"7":0.09483541999969043,"8":-0.06676648378675963,"9":-0.02504873033955129,"10":-0.04017716510538731,"11":-0.024541239875999103,"12":0.09542143408342213,"13":-0.04527352763829476,"14":0.10006687768628039,"15":-0.1281041758122465,"16":0.000016841599277073983,"17":-0.002701501898587976,"18":0.09918856541475073,"19":-0.10084673468418265,"20":0.10044672281388843,"21":0.28868604098082534,"22":-0.0005191318385441463,"23":0.11961160766979785,"24":-0.08480163584611455,"25":-0.08487666654869999,"26":0.07692329969578851,"27":-0.01360182096787028,"28":0.30147644772035137,"29":-0.07466174988607956,"30":0.038963177461028724,"31":-0.2143691272060799,"32":0.24173331921549793,"33":-0.009779472153668931,"34":-0.14229500473943943,"35":0.031645947973883676,"36":0.019642942797243906,"37":-0.24645184288422647,"38":-0.1256894946922712,"39":0.1703320511702116,"40":-0.14517763736783293,"41":0.08863526725766177,"42":-0.17461097294723593,"43":0.0003714424068438158,"44":-0.018894303502396174,"45":0.13177570777147715,"46":-0.09371574616267771,"47":-0.008336621645443297,"48":0.12911369752175467,"49":0.03152387497258624}}],"biases":{"sx":1,"sy":1,"depth":50,"w":{"0":0.19627960278621193,"1":0.39289524655954483,"2":0.09286716886585071,"3":0.15731914437578304,"4":0.10671726907862723,"5":0.29721269544727613,"6":0.05491408023976114,"7":0.13222778194759843,"8":0.09774552367157263,"9":0.24450140509144555,"10":0.09879004642730699,"11":0.37689766489976817,"12":0.30526398728176946,"13":0.0969641320316521,"14":0.011964060383881573,"15":0.08070361871453378,"16":0.10005237074647999,"17":-0.043856500355492704,"18":0.19639647047678213,"19":0.09638440356150575,"20":0.0829265365030672,"21":0.19051062612664493,"22":0.11591826754396722,"23":0.10455592880258294,"24":0.18650140031986193,"25":-0.09202747359846952,"26":0.2775085451728876,"27":0.15538200664946308,"28":0.23317896673826372,"29":0.1610227861922596,"30":0.17834525727576064,"31":0.09007959186144937,"32":0.08965108168190497,"33":0.18374305768437377,"34":0.3055309017949268,"35":0.12590591760663403,"36":0.09894785667741492,"37":0.10019809906682295,"38":0.08814282898763887,"39":0.09998402565290962,"40":0.24031636684888275,"41":0.15989722139594853,"42":0.18994878292190553,"43":0.11821591989460678,"44":0.11272181339740801,"45":-0.14451079966575725,"46":0.1938224355888057,"47":0.421839748607994,"48":0.1,"49":0.09169635455939745}}},{"out_depth":50,"out_sx":1,"out_sy":1,"layer_type":"relu"},{"out_depth":2,"out_sx":1,"out_sy":1,"layer_type":"fc","num_inputs":50,"l1_decay_mul":0,"l2_decay_mul":1,"filters":[{"sx":1,"sy":1,"depth":50,"w":{"0":0.2595760223445688,"1":0.5012805720980741,"2":0.06900037884758056,"3":0.27011655009335545,"4":0.0753487397835193,"5":0.21161260910058177,"6":0.02766409812696054,"7":0.16776812131216337,"8":0.22762893410003365,"9":0.4323888155667762,"10":0.12164120139116301,"11":0.4861375384578142,"12":0.38001164889900413,"13":-0.14673990229688827,"14":-0.1681939281832778,"15":-0.13719493622424964,"16":0.13967802408567104,"17":-0.22470078906032148,"18":0.01752017246618011,"19":-0.22259806901036588,"20":-0.09306822724578026,"21":-0.4849530881834305,"22":-0.058775131953940844,"23":0.022144945936117738,"24":0.1420967219750651,"25":-0.3737257551910466,"26":0.37133638486220116,"27":0.06691304251495503,"28":0.09083387123362446,"29":0.054541915681442045,"30":0.16695195992946688,"31":-0.036575886957838595,"32":-0.009446890996001852,"33":0.04252074087799624,"34":0.3221062026422398,"35":-0.16085244575073074,"36":-0.03760661442875774,"37":0.04100932516338899,"38":0.03411301239488098,"39":-0.14390129809566465,"40":0.20034564209317116,"41":0.1696674191285745,"42":0.04634723301592667,"43":-0.08041208909681942,"44":-0.22734090307629828,"45":-0.558258758382161,"46":0.3753124617332588,"47":0.3693314405709524,"48":0.1132583976554721,"49":-0.05245907751251102}},{"sx":1,"sy":1,"depth":50,"w":{"0":0.10001383613091176,"1":0.34958740299798247,"2":-0.10248939461882778,"3":0.018403099547244475,"4":0.02053644005791538,"5":0.18412648206586005,"6":-0.26808473204262184,"7":0.07857372194288682,"8":-0.09943174507426905,"9":0.08672538370921862,"10":-0.16325195152898506,"11":0.3977070023136699,"12":0.2352901845094892,"13":-0.05732460485645454,"14":-0.14188426604635576,"15":-0.1382554001980105,"16":-0.023049511967120764,"17":-0.4840299541887066,"18":0.2540057004561817,"19":0.1230062110660145,"20":-0.014539087930042514,"21":-0.3748443482312405,"22":0.1439716759725231,"23":0.046877159056354686,"24":0.12441669712514655,"25":-0.1567779285515253,"26":0.09814268010044595,"27":0.2826304516244087,"28":0.24523203508134742,"29":0.23131087807321565,"30":0.14318341350982453,"31":0.12300119489033012,"32":0.011000782022316212,"33":0.1774921283108326,"34":0.3125894764262143,"35":0.09213343217696836,"36":-0.005399918096201742,"37":-0.06793265921856306,"38":0.045848951788672904,"39":-0.0353478104075626,"40":0.18741486515022698,"41":0.026691825617656414,"42":0.2374533719787034,"43":-0.056437563801100314,"44":0.17418779031674683,"45":-0.12762677455252225,"46":0.06760503614297651,"47":0.5747362353246276,"48":-0.1193790791504028,"49":-0.08063596829539486}}],"biases":{"sx":1,"sy":1,"depth":2,"w":{"0":0.5011950817650433,"1":0.4282788302085219}}},{"out_depth":2,"out_sx":1,"out_sy":1,"layer_type":"regression","num_inputs":2}]}